<?xml version="1.0"?>
<opencv_storage>
<opencv_ml_svm>
  <format>3</format>
  <svmType>C_SVC</svmType>
  <kernel>
    <type>LINEAR</type></kernel>
  <C>10.</C>
  <term_criteria><epsilon>1.1920928955078125e-07</epsilon></term_criteria>
  <var_count>1764</var_count>
  <class_count>3</class_count>
  <class_labels type_id="opencv-matrix">
    <rows>3</rows>
    <cols>1</cols>
    <dt>i</dt>
    <data>
      0 1 2</data></class_labels>
  <sv_total>3</sv_total>
  <support_vectors>
    <_>
      3.09254671e-03 2.91391108e-02 1.49987265e-02 -8.07557814e-03
      3.14318351e-02 -3.42802182e-02 -4.01868038e-02 -8.34974833e-03
      -3.21477465e-02 -3.36055011e-02 -3.28947324e-04 -5.35507500e-03
      -3.63116264e-02 1.12187892e-01 -2.47119553e-02 -4.34593707e-02
      -2.32284870e-02 -2.65375338e-02 -1.03182541e-02 2.98186522e-02
      -1.36709539e-02 -8.73819552e-03 3.99505794e-02 -6.12995327e-02
      -5.09432741e-02 -1.05392262e-02 -2.48930529e-02 7.73190754e-03
      5.16061559e-02 3.84770893e-02 1.53536731e-02 2.70574819e-03
      -2.78244000e-02 -5.23928031e-02 -1.18749856e-03 9.94237140e-04
      8.62978213e-03 2.04922110e-02 1.78703722e-02 2.59278100e-02
      7.21611083e-02 -3.19799297e-02 -3.14001553e-02 -2.40733586e-02
      -1.78141538e-02 6.75914483e-03 -2.87548751e-02 -3.01336460e-02
      -7.77807906e-02 -2.11898033e-02 -1.10025741e-01 -3.94211896e-02
      -3.02275382e-02 -7.49927713e-03 3.25321057e-03 6.56000152e-02
      5.51900826e-02 5.44247068e-02 6.61303774e-02 -3.98317166e-02
      -4.83330488e-02 -9.64687299e-03 -1.36458492e-02 1.22457817e-02
      2.41145287e-02 2.53908243e-02 -1.04014322e-01 -2.85126623e-02
      -1.21690735e-01 -4.28945720e-02 -7.23655894e-03 2.01284350e-03
      1.81481913e-02 -1.41481645e-02 -7.93426409e-02 -7.86547586e-02
      -8.19444954e-02 -5.32905906e-02 -2.63381712e-02 6.29524468e-03
      4.40556742e-02 2.65833847e-02 1.56977810e-02 -5.05422382e-03
      3.58247086e-02 -7.37996474e-02 -1.77558269e-02 -5.38141876e-02
      -2.31166137e-03 9.55731049e-02 -2.35502096e-03 7.32753649e-02
      2.96182986e-02 -5.09868674e-02 -4.04454507e-02 5.37959859e-02
      2.91561522e-02 3.31257097e-02 2.90152128e-03 -4.46711630e-02
      1.48076164e-02 4.06853668e-02 -2.27453443e-03 -1.70581620e-02
      4.70431298e-02 5.19133580e-04 -2.12392770e-02 3.20291001e-04
      9.94442403e-03 3.90262865e-02 6.34517819e-02 3.55111957e-02
      -1.31786168e-01 -5.72928712e-02 1.45134190e-02 4.16180715e-02
      5.14551364e-02 8.09883103e-02 1.19292751e-01 8.63373280e-02
      6.93355454e-03 -1.52839139e-01 -1.39474809e-01 1.64125450e-02
      3.75005566e-02 7.85230100e-02 -7.50034750e-02 -1.22890249e-02
      -1.14546884e-02 -2.14512609e-02 -4.33591045e-02 4.90385294e-02
      -6.02685660e-03 6.70824433e-03 -5.85040860e-02 -6.32546395e-02
      -4.71982465e-04 -3.30328047e-02 -4.25942391e-02 -3.27380635e-02
      -5.99774383e-02 4.56712991e-02 5.54210134e-02 -7.12906243e-03
      3.29238474e-02 1.36334151e-01 9.64115635e-02 4.31391671e-02
      -1.46046221e-01 -1.01596326e-01 5.34609985e-03 3.90680954e-02
      3.87362577e-02 6.82666078e-02 1.19905971e-01 1.06144875e-01
      5.06135896e-02 -5.48471585e-02 1.26170125e-02 1.24457307e-01
      7.27210119e-02 5.56928776e-02 -4.03255485e-02 1.17639946e-02
      -7.13752508e-02 -1.82658795e-03 -2.17221547e-02 -3.82196754e-02
      -3.15022189e-03 -1.34425599e-03 -3.66871655e-02 -2.08725464e-02
      2.63188761e-02 -1.21829724e-02 -8.56244098e-03 -2.00346261e-02
      6.10117875e-02 8.26141909e-02 5.99610433e-03 -3.84290181e-02
      2.71467194e-02 6.53869882e-02 4.62170988e-02 -9.22525767e-03
      -4.49652858e-02 -2.22866312e-02 5.83122447e-02 1.51067534e-02
      3.78537062e-03 1.43126594e-02 6.27479926e-02 6.32133707e-03
      1.18419584e-02 3.95731255e-02 -4.85432986e-03 5.04265772e-03
      4.89938781e-02 2.50610299e-02 -1.28019769e-02 4.13581915e-02
      1.35535665e-03 -5.19891493e-02 -2.83522718e-02 7.52657428e-02
      6.12787977e-02 9.34274681e-03 -5.06577678e-02 9.39400960e-03
      2.84044631e-02 4.88695828e-03 -3.56404134e-03 -1.76654886e-02
      2.52294037e-02 -2.74797510e-02 1.76387373e-02 -1.62822828e-02
      2.60863602e-02 7.02760816e-02 3.11417412e-03 3.18652205e-02
      3.72911952e-02 1.22684734e-02 -1.75675214e-03 2.65042055e-02
      4.44488525e-02 -8.77423398e-03 1.64144067e-03 -2.02703923e-02
      3.24986433e-03 6.19445592e-02 3.42674963e-02 1.61645748e-02
      1.95055101e-02 1.75067317e-02 5.33201965e-03 1.97061710e-02
      1.20654088e-02 7.12306565e-03 -4.55748998e-02 1.60925612e-02
      -2.99929138e-02 1.14884609e-02 -3.68518196e-02 -3.56083699e-02
      -4.77396388e-04 1.36832884e-02 -8.14650860e-03 1.61832385e-02
      1.73047408e-02 8.12724140e-03 1.88640226e-02 -3.20637859e-02
      -1.22867068e-02 -2.11827531e-02 -7.99185634e-02 -1.93709303e-02
      4.97627929e-02 -5.50847128e-02 -4.32832614e-02 -7.03323586e-03
      -7.09686335e-03 1.33476248e-02 2.97225341e-02 -1.12236142e-02
      6.26319051e-02 -3.42651568e-02 -6.80808127e-02 -6.00140989e-02
      -4.34671296e-03 -2.13166568e-02 4.07613367e-02 -2.88450182e-03
      -5.87459430e-02 -7.49240518e-02 1.80888046e-02 -3.89371365e-02
      -3.83134447e-02 1.85917933e-02 5.07963542e-03 6.23695254e-02
      -1.36260558e-02 -1.26336850e-02 4.52036113e-02 7.40874186e-02
      -8.98174793e-02 -9.60695744e-02 1.58406906e-02 -3.76889370e-02
      2.45555136e-02 1.82787627e-02 1.61036495e-02 7.09330589e-02
      4.47215252e-02 -6.22095391e-02 -5.40725328e-02 1.20395822e-02
      1.59331821e-02 4.78687882e-02 5.40967062e-02 6.97166249e-02
      -1.20840706e-01 -1.00292988e-01 -1.15712717e-01 -6.74248487e-02
      -1.42348045e-02 4.75367829e-02 7.40616843e-02 3.98201831e-02
      4.17047441e-02 4.98719960e-02 3.15432325e-02 -2.73805261e-02
      -5.61237969e-02 7.90699478e-03 1.55018577e-02 4.94856611e-02
      8.46332535e-02 8.73447955e-02 -1.04142539e-01 -3.92071903e-02
      -4.21161167e-02 -6.38372824e-02 -1.77525822e-02 4.27215546e-02
      2.61044819e-02 1.02499142e-01 8.47989619e-02 -9.22628865e-02
      -1.21865943e-01 4.22767289e-02 4.27137725e-02 5.06975735e-03
      -1.50116924e-02 -4.41858396e-02 3.44526023e-02 4.46429104e-02
      -6.97239861e-02 -1.12317674e-01 6.69609085e-02 3.85871008e-02
      -4.13450263e-02 -9.07005891e-02 1.08765941e-02 9.58948284e-02
      9.44388509e-02 -5.15533350e-02 -9.40116271e-02 2.24670582e-02
      3.35282786e-03 -3.05712335e-02 -2.36965884e-02 -3.64247598e-02
      6.53764652e-03 1.51038384e-02 -9.50444192e-02 -1.21004678e-01
      4.35574278e-02 7.52979890e-03 -5.48364446e-02 -1.04177751e-01
      -9.31685045e-02 -3.38902362e-02 -9.28498060e-03 -2.28090864e-02
      1.49488570e-02 9.14029703e-02 3.01421974e-02 -4.45383452e-02
      -1.07267030e-01 -8.86890069e-02 -3.87379602e-02 -1.13695264e-01
      -1.28178652e-02 7.98180327e-02 -7.37149967e-04 1.31896092e-02
      -1.09632090e-02 -7.17253685e-02 -5.55335358e-02 -7.73775429e-02
      -2.56107245e-02 -4.24355157e-02 7.75600711e-05 4.90181111e-02
      3.77252372e-03 -6.12031333e-02 -7.68577978e-02 -4.76716645e-02
      -6.64883852e-02 -6.70613572e-02 -1.78829208e-02 4.67774272e-02
      -2.25819070e-02 -5.76419495e-02 -8.82043689e-02 -6.73884302e-02
      -7.62057379e-02 -6.94107711e-02 -1.13948025e-01 -1.84697192e-02
      5.47616668e-02 4.35824879e-02 -1.97124835e-02 -5.67097925e-02
      -6.63894117e-02 -6.84077665e-02 -3.41252014e-02 -4.26408574e-02
      -1.31618856e-02 5.62610338e-03 9.04862508e-02 5.99284694e-02
      2.07408126e-02 -7.29648322e-02 -4.70921490e-03 -3.94180231e-02
      -3.87172848e-02 2.35540583e-03 -3.00065298e-02 -6.48534205e-03
      -5.37818633e-02 -8.03824812e-02 -4.25840244e-02 -1.68967713e-02
      -1.32537587e-02 2.54662167e-02 3.09186969e-02 -4.40756306e-02
      7.51398429e-02 6.29978254e-02 1.21400319e-02 -2.90315971e-02
      -3.00798919e-02 4.95656626e-03 -1.77440029e-02 -4.59495634e-02
      9.16595664e-03 9.76815373e-02 2.31647808e-02 1.90911833e-02
      -4.30740900e-02 -2.85279658e-03 4.88620205e-03 2.26824582e-02
      1.15003875e-02 1.03065474e-02 -1.82310585e-02 -5.37037477e-02
      -1.00957379e-02 -3.84016745e-02 -1.40975136e-02 -4.21520993e-02
      -1.39360037e-02 -6.08026097e-03 -6.26462325e-03 4.74722199e-02
      2.32779514e-02 2.94203274e-02 -2.80104075e-02 -1.14922440e-02
      -2.79357415e-02 -1.79328471e-02 -5.50027303e-02 1.06738759e-02
      6.15734188e-03 2.91088670e-02 1.76993627e-02 -2.84948945e-02
      -6.84102532e-03 -4.29943204e-03 2.88036633e-02 -9.30544513e-04
      5.02676889e-02 -3.08316085e-03 -4.80002724e-02 -9.97607969e-03
      -4.92647327e-02 -2.76467279e-02 -9.88170877e-03 1.47105837e-02
      -2.11146977e-02 3.41820642e-02 -7.17278337e-03 -2.03542542e-02
      3.12480936e-03 -5.04086427e-02 -5.18867467e-03 -2.25237533e-02
      1.59037001e-02 -3.74216922e-02 -1.06082834e-01 3.02649960e-02
      -1.97389871e-02 -8.72622430e-03 -1.51894046e-02 -1.60138234e-02
      -1.33948931e-02 8.94127600e-03 -8.42162687e-03 3.11137661e-02
      -2.44460776e-02 -5.61405979e-02 -4.21941616e-02 -2.90611591e-02
      6.08853810e-02 1.55377528e-03 -8.83607268e-02 -5.33674806e-02
      -3.63177760e-03 -1.67294010e-03 -1.25477631e-02 6.68113912e-03
      9.75925475e-03 5.38919978e-02 2.27467120e-02 1.64975729e-02
      -6.87312288e-03 -1.19011522e-04 -2.91523840e-02 -5.02496287e-02
      3.04825082e-02 2.23732484e-03 -4.96644899e-03 -3.74399535e-02
      -3.88160907e-02 -2.98394654e-02 -7.09706498e-03 -2.00261511e-02
      -8.57025199e-03 -6.27346104e-03 -6.74031582e-03 -2.85298843e-02
      -5.63229099e-02 -3.23202088e-02 -3.87596153e-02 -4.76285582e-03
      -5.16122356e-02 -4.43138182e-02 2.32276856e-03 -1.03675695e-02
      8.44353810e-02 4.04605456e-02 4.32864912e-02 6.21563531e-02
      4.82256860e-02 -7.73277367e-04 -3.30379754e-02 3.17033455e-02
      2.57676113e-02 3.07483077e-02 3.52728702e-02 2.65776515e-02
      -5.14904968e-04 -6.86488173e-04 -7.83274695e-03 3.35384742e-03
      -8.96086078e-03 3.22990231e-02 -6.28052885e-03 -4.74685878e-02
      -4.23466340e-02 9.47197061e-03 4.15991917e-02 -2.53997296e-02
      -3.62923108e-02 1.84519477e-02 -3.88842891e-03 -1.52100157e-02
      -1.38263199e-02 2.02430822e-02 1.55176055e-02 -4.16227765e-02
      -1.28565550e-01 -2.10071690e-02 -6.32670475e-03 -6.76470576e-03
      -1.69210769e-02 6.02019392e-02 5.68994433e-02 1.20778149e-02
      -5.45798894e-03 -1.38818920e-02 1.14363560e-03 -1.41725754e-02
      -7.55473319e-03 -7.01623634e-02 -2.63152868e-02 3.75499986e-02
      -3.03657237e-03 -1.26176339e-03 6.56166822e-02 1.49082625e-02
      5.31502580e-03 -6.30136654e-02 -2.91168969e-02 -3.91632430e-02
      -8.46897159e-03 -1.48452411e-03 -5.65250637e-03 -7.98691288e-02
      -1.93007067e-02 -2.01501381e-02 -3.02034803e-03 -8.93405378e-02
      -6.23761415e-02 1.93957649e-02 -5.94592746e-03 2.37188209e-02
      1.84186473e-02 -3.73435020e-02 3.08052311e-03 -3.49742696e-02
      -7.99671784e-02 -6.14942722e-02 -2.29026843e-02 -3.16414200e-02
      8.77546668e-02 8.17414522e-02 -3.01326811e-02 -2.52263546e-02
      -3.23040374e-02 -8.30741972e-02 -8.22502375e-02 -8.06258991e-02
      -6.51776642e-02 4.70698737e-02 -1.43652586e-02 -6.97093457e-02
      -5.95136024e-02 -6.31395951e-02 -1.04901217e-01 -5.68741970e-02
      -3.36589403e-02 -1.64395515e-02 1.22486450e-01 4.78228889e-02
      -4.28825319e-02 1.90461576e-02 -1.94855686e-02 -9.47380364e-02
      -1.10162012e-01 -1.25548571e-01 -8.22628811e-02 6.80090412e-02
      -3.53178149e-03 -7.15280175e-02 -1.03735020e-02 -8.43662620e-02
      -4.00683470e-02 -4.25551012e-02 -3.19757462e-02 1.85594801e-03
      1.28309568e-02 -9.68478434e-03 -2.98359394e-02 -1.53148388e-02
      -2.15533655e-02 -5.41295223e-02 -6.16933312e-03 4.34714044e-03
      4.79513966e-02 1.59139207e-04 4.35268953e-02 5.77707067e-02
      8.00171494e-03 -2.55355407e-02 -1.11293279e-01 -7.49203190e-02
      -1.00572951e-01 -7.86946118e-02 -1.04307206e-02 5.12519032e-02
      -1.97938420e-02 -1.49125801e-02 -7.17554465e-02 -6.55215308e-02
      -4.43338789e-02 -1.65315345e-03 -9.54080671e-02 -6.91688992e-03
      -1.04424043e-03 1.31339692e-02 -1.37448637e-02 -7.32417107e-02
      -3.83352861e-02 -3.87103409e-02 -4.69862036e-02 -2.31009279e-03
      1.10133914e-02 5.55639267e-02 2.97466666e-02 3.57303806e-02
      -5.18385731e-02 3.13660167e-02 -6.29969453e-03 -2.64107566e-02
      -3.37904319e-02 6.54323176e-02 7.34768668e-03 5.22081219e-02
      4.01510894e-02 1.48934079e-02 -7.83441290e-02 -4.87981662e-02
      -4.06162739e-02 3.20892818e-02 -1.84731111e-02 -1.24078132e-01
      -5.01952581e-02 -1.75273083e-02 -1.07149936e-01 -1.48268202e-02
      5.49422693e-04 -1.19775115e-02 -2.33599395e-02 2.77391970e-02
      -3.96022163e-02 -3.48932780e-02 1.80148017e-02 2.06895377e-02
      2.38367002e-02 8.79290048e-03 1.32166771e-02 -4.21861783e-02
      -1.23085648e-01 -2.41597798e-02 -2.41673309e-02 2.36809645e-02
      2.10412797e-02 -2.96578044e-03 7.14587513e-03 2.70531755e-02
      -7.85949547e-03 1.79293230e-02 -6.49177581e-02 -5.96174188e-02
      -3.20158042e-02 -8.60885624e-03 7.76649360e-03 1.38149895e-02
      -2.30772840e-03 -1.72060709e-02 4.84578907e-02 -1.22668762e-02
      -1.16086639e-02 1.12289637e-02 2.35366561e-02 8.70642159e-03
      1.10869966e-02 -1.23048918e-02 -2.60784738e-02 2.03688703e-02
      -6.22677617e-02 -2.81879772e-02 -1.93497315e-02 -8.96304287e-03
      1.59020710e-03 -1.91069599e-02 1.36765074e-02 -2.99727879e-02
      1.61394179e-02 1.34647973e-02 8.29707272e-03 1.20080020e-02
      -6.72919443e-03 -1.82525814e-02 -5.05121760e-02 -3.46323736e-02
      -2.44312435e-02 4.78686914e-02 -3.25506441e-02 -3.45660672e-02
      -6.05786918e-04 -5.46217477e-03 -3.60578322e-03 -1.20628802e-02
      -1.88479908e-02 -3.03183626e-02 6.42828876e-03 -7.11702392e-04
      2.48435587e-02 2.50945631e-02 1.07514244e-02 1.57960446e-03
      -4.00237814e-02 -5.43636233e-02 -3.49150710e-02 -2.70736609e-02
      -1.56994201e-02 -2.78264657e-03 1.88869443e-02 6.81876345e-03
      -7.01384805e-03 -2.46777777e-02 -8.38962570e-03 4.34270315e-02
      5.79140335e-02 -1.75183322e-02 -3.55238095e-02 8.36496148e-03
      -1.98637008e-05 -2.15975046e-02 -3.36810313e-02 -2.22740304e-02
      -1.97373610e-02 -2.00984050e-02 -1.14557348e-01 -7.28718415e-02
      -1.03456238e-02 -1.73251964e-02 4.71897773e-04 -3.02901473e-02
      -4.84411083e-02 4.54502851e-02 6.98038787e-02 1.31910741e-02
      -4.00012210e-02 1.13644553e-02 1.47128599e-02 6.25942927e-03
      -5.43543808e-02 -9.74754766e-02 -6.62318468e-02 -2.30325870e-02
      -7.60944933e-03 -1.13562427e-01 7.45109282e-03 2.99427081e-02
      -2.11478192e-02 -2.92149261e-02 -1.87673271e-02 -1.33486232e-02
      -2.84347311e-02 -7.23254085e-02 -4.63480456e-03 -3.20848892e-03
      -6.85001840e-04 -3.07715368e-02 -2.98732873e-02 5.36239985e-03
      3.07866260e-02 7.17482856e-03 -1.80549324e-02 1.79366060e-02
      3.93550284e-02 1.24305282e-02 3.04570945e-04 -1.55327907e-02
      -1.73119809e-02 -4.89558913e-02 -5.27349394e-03 2.64040381e-03
      -2.21682843e-02 5.13876090e-03 3.02148778e-02 -3.59816179e-02
      -3.84167917e-02 6.82548434e-03 3.49395908e-02 -5.95189258e-03
      1.67788118e-02 1.30161187e-02 2.02843696e-02 5.00669330e-03
      -7.05628544e-02 -6.83977157e-02 -5.44078574e-02 1.83848403e-02
      9.72148627e-02 -4.37088199e-02 -6.09869212e-02 8.82581621e-03
      -5.25065288e-02 -1.00779094e-01 -6.19615279e-02 -8.72447342e-02
      -4.66280431e-02 4.21345830e-02 -1.94513835e-02 -3.30504142e-02
      -1.80613399e-02 -9.05771405e-02 -8.44677091e-02 -6.44876510e-02
      -1.17442019e-01 3.13337669e-02 1.15175575e-01 -4.42846455e-02
      -4.44850884e-02 -1.14050079e-02 -7.76445642e-02 -5.96384667e-02
      1.11388853e-02 -8.03304166e-02 4.77126725e-02 6.90344572e-02
      -1.08629856e-02 2.03481223e-02 5.55633940e-03 -9.00174528e-02
      -1.20735399e-01 -5.54625094e-02 -7.38821253e-02 -1.58891473e-02
      2.64107138e-02 1.07623748e-01 1.42226880e-02 -1.93199813e-02
      -1.04946002e-01 -1.28647968e-01 -9.39705521e-02 2.03277767e-02
      -4.80689369e-02 1.33335115e-02 2.21528206e-02 -3.26795243e-02
      -6.36200905e-02 -1.17122695e-01 -5.28471544e-02 7.12473541e-02
      -8.13301373e-03 5.96059971e-02 2.09358148e-02 7.30007514e-02
      3.42742950e-02 -5.10456860e-02 -1.29615143e-01 -3.75511572e-02
      1.60400439e-02 8.92817080e-02 6.86825812e-02 2.31004916e-02
      4.55506481e-02 3.10368165e-02 -8.44713748e-02 -1.01462863e-01
      -7.05584735e-02 -5.62860109e-02 -1.62033923e-02 6.07366599e-02
      2.75297873e-02 -7.19166100e-02 -5.19655645e-02 -4.14118916e-02
      -7.91168883e-02 -1.46307023e-02 3.77608510e-03 -1.01297479e-02
      -3.62246297e-02 5.37482016e-02 1.47069590e-02 -5.62437577e-03
      1.15073714e-02 -1.75488498e-02 -7.12829595e-03 -2.55105048e-02
      -3.29813198e-03 2.15906519e-02 1.38505148e-02 -2.92643700e-02
      -2.01388877e-02 -3.63493301e-02 -1.63258221e-02 -4.22496116e-03
      1.35066630e-02 1.23648075e-02 -4.28761840e-02 8.07513595e-02
      3.64150219e-02 1.44452117e-02 2.61630733e-02 1.47221591e-02
      1.21445984e-04 2.99820285e-02 -1.22697093e-02 9.65674128e-03
      1.14002585e-01 9.30631533e-03 -6.43920759e-03 -7.66046671e-03
      -1.50831454e-02 -8.72299075e-03 -1.42479036e-02 -3.27806212e-02
      -2.86718905e-02 1.93216167e-02 -2.10743919e-02 -1.95817929e-02
      -2.47440580e-02 -2.02238411e-02 6.35920884e-03 1.50197009e-02
      6.70832908e-03 2.66249031e-02 -1.68424025e-01 3.45321069e-03
      -2.10433477e-03 2.53458172e-02 -2.13472405e-03 -2.10938994e-02
      -2.88678110e-02 -3.41706015e-02 -2.01341007e-02 2.76981445e-04
      -1.88219212e-02 1.05933333e-02 -4.77741566e-03 -1.01708481e-02
      4.36961092e-03 4.94259689e-03 -3.05088963e-02 -9.02517792e-03
      7.07045756e-03 -8.81554093e-03 1.64356660e-02 1.56216612e-02
      5.51887974e-03 -8.54063593e-03 -2.38192528e-02 -5.19359112e-02
      -4.70161587e-02 5.91942370e-02 -5.51891588e-02 1.35131013e-02
      1.85693521e-02 4.82076546e-03 3.01323868e-02 1.27329696e-02
      -2.32767724e-02 1.57258324e-02 -5.96583029e-03 2.07978487e-02
      1.70790572e-02 8.90998729e-03 1.15467915e-02 1.73897538e-02
      -1.78317493e-03 -3.14554572e-02 -3.08194105e-02 -3.31647471e-02
      -3.69704813e-02 -1.47403451e-02 -1.51738422e-02 5.77367330e-03
      -9.12712142e-03 -2.76912805e-02 -5.62108345e-02 1.02749746e-02
      7.86635801e-02 1.26036080e-02 -1.90471411e-02 1.08640566e-02
      1.02808196e-02 2.82955188e-02 -3.72074619e-02 -1.15751736e-01
      -1.26883700e-01 -2.64519248e-02 5.61180897e-02 -6.08655922e-02
      3.29961404e-02 6.21686578e-02 1.46822641e-02 -1.91109721e-02
      -2.39582378e-02 1.82856189e-03 4.08937782e-02 2.69218422e-02
      2.37318650e-02 1.01453084e-02 3.19037177e-02 9.94582474e-02
      -7.44938245e-03 -3.07587869e-02 -1.38624579e-01 -2.69597173e-02
      7.12077692e-02 3.98601443e-02 2.88854297e-02 9.26888585e-02
      5.01873679e-02 -3.34995389e-02 -4.77949753e-02 -1.23281382e-01
      -7.36243725e-02 1.69789009e-02 -2.15251409e-02 1.15536666e-02
      5.99629097e-02 1.13235938e-03 -4.39738594e-02 -4.04470228e-02
      8.83287564e-03 -8.34594388e-03 2.56669417e-04 3.43936458e-02
      -6.33074436e-03 9.28916596e-03 7.01193362e-02 1.10489680e-02
      -6.15305675e-04 -1.09411411e-01 -9.43304375e-02 5.34975082e-02
      1.02488689e-01 6.03562929e-02 8.31713900e-02 2.80699152e-02
      2.37297509e-02 -6.00658683e-03 1.93440206e-02 -1.26993167e-03
      5.49338609e-02 6.28966466e-02 2.86113261e-03 1.78095826e-03
      -5.30575663e-02 -3.60903740e-02 -8.76136199e-02 6.60865605e-02
      1.30906507e-01 -9.05988459e-03 2.26826537e-02 -7.27797393e-03
      -5.62829040e-02 -5.38401753e-02 -5.44261513e-03 -7.20954239e-02
      5.24082221e-03 8.15301016e-02 7.37803383e-03 3.10479198e-02
      -6.58244407e-03 -6.13646694e-02 -5.09160571e-02 1.34331698e-03
      -2.45149117e-02 7.80720264e-02 8.80708545e-02 8.58251899e-02
      -1.24362130e-02 -3.76206189e-02 -9.69749913e-02 -1.11713044e-01
      -4.69083451e-02 -1.29797027e-01 -2.71501765e-02 5.59755266e-02
      4.11538668e-02 -8.53482261e-03 -6.29379153e-02 -1.06224306e-01
      -3.53717618e-02 7.40297511e-03 -3.20055410e-02 -4.89483178e-02
      -3.10706478e-02 3.18683684e-02 3.39444727e-02 -3.13880108e-02
      -6.80561066e-02 1.60991959e-02 -2.64820596e-03 5.94255887e-02
      -3.13970670e-02 -5.10800183e-02 -3.19542363e-03 1.78118460e-02
      -1.96776520e-02 -1.45042250e-02 -8.53755623e-02 -8.33563879e-02
      -8.02022740e-02 -8.13395437e-03 1.52090611e-03 2.01389138e-02
      1.63531825e-02 -5.35003729e-02 -8.33756477e-02 -1.98353343e-02
      -1.13443867e-03 -5.63145056e-03 5.95044009e-02 2.73976494e-02
      2.91032065e-02 5.36288172e-02 -2.08964925e-02 -2.38022730e-02
      2.67717242e-02 1.20320786e-02 1.85621064e-02 4.29434091e-04
      -4.24742624e-02 -2.49952767e-02 3.91533744e-04 6.04705466e-03
      3.25566232e-02 2.40399726e-02 3.29237618e-02 3.53455842e-02
      7.54678482e-03 3.33041288e-02 -1.52388178e-02 -2.87699495e-02
      2.30633263e-02 2.59551406e-02 3.15404381e-03 3.46919373e-02
      -1.69083793e-02 1.23278731e-02 4.09259275e-03 3.07103749e-02
      -2.19955598e-03 -5.58709502e-02 -4.83262092e-02 -4.95246332e-03
      2.54876930e-02 5.63177951e-02 2.08410770e-02 6.29210919e-02
      -8.22620859e-05 -3.39355320e-02 -4.68880571e-02 -6.28309175e-02
      -2.05747932e-02 -3.18237999e-03 3.03218085e-02 7.72787184e-02
      -1.20849624e-01 -3.20957080e-02 -3.42856646e-02 8.14968720e-03
      6.97296858e-03 -3.83589491e-02 -3.21496837e-02 -1.39289666e-02
      1.93292759e-02 -1.48287450e-03 -1.94199588e-02 2.01996486e-03
      7.67914898e-05 -1.98047841e-03 -4.41802032e-02 1.28522934e-02
      5.67217208e-02 6.41163886e-02 1.32776061e-02 -2.23105419e-02
      -3.14888246e-02 -2.82928701e-02 -3.22530940e-02 -6.32788390e-02
      -4.62544383e-03 2.18195580e-02 3.49189453e-02 1.25873787e-02
      -8.30379035e-03 -9.65467468e-03 3.36385472e-03 -8.30935128e-03
      2.55267825e-02 -1.00586768e-02 -2.17478983e-02 -1.04402173e-02
      -6.13047183e-02 -1.34311272e-02 -1.15521764e-02 2.49666218e-02
      3.44784968e-02 2.70797443e-02 -3.83629799e-02 -4.51652259e-02
      -3.95299569e-02 -8.77633989e-02 -3.56111825e-02 -1.59932976e-03
      1.22365113e-02 2.41687298e-02 6.43097013e-02 3.31196189e-03
      5.00516361e-03 3.35398763e-02 -6.69483319e-02 -2.45362744e-02
      -1.92116445e-03 5.28667420e-02 3.56096923e-02 5.85141182e-02
      -1.55190825e-02 -5.54458983e-02 -1.30880857e-02 -8.65408406e-02
      5.80515154e-03 1.97135080e-02 5.06762899e-02 4.05689403e-02
      6.39653765e-03 -6.07539192e-02 -6.94485605e-02 -4.84145880e-02
      -5.05920351e-02 -1.69803407e-02 1.04921439e-03 8.25408101e-03
      2.32186541e-02 5.05666249e-02 -7.24057667e-03 2.62970179e-02
      -1.55970126e-01 -1.13048755e-01 -5.92823774e-02 -2.01704586e-03
      1.52559765e-02 5.54535948e-02 4.64377888e-02 -1.65825263e-02
      -4.81681824e-02 -9.68370959e-03 3.70755862e-03 5.21111153e-02
      2.85376254e-02 6.25265613e-02 6.22115135e-02 8.22283030e-02
      1.36937490e-02 3.72800864e-02 -1.28911346e-01 -6.65002167e-02
      -1.40827866e-02 2.27163695e-02 7.75441974e-02 7.82579035e-02
      2.00430956e-02 4.20255912e-03 4.98366095e-02 -1.06411248e-01
      -1.55015588e-01 3.60854194e-02 1.09123662e-01 3.77043448e-02
      -1.19949887e-02 -3.02822422e-02 3.77940456e-03 4.79192706e-03
      -2.80067474e-02 -3.82541455e-02 6.76998198e-02 9.83731896e-02
      -2.69957371e-02 -8.31721351e-02 4.79880087e-02 1.31009882e-02
      1.96646117e-02 -1.49882644e-01 -1.10237859e-01 3.42873968e-02
      1.13534629e-01 1.02714680e-01 5.43555170e-02 -3.72250713e-02
      2.69203279e-02 -8.49486142e-03 -8.16704109e-02 -1.03639983e-01
      5.45080528e-02 9.56318974e-02 8.31540078e-02 -2.52092350e-02
      -5.22603318e-02 -7.24411919e-04 2.31800834e-03 -5.31766936e-03
      1.00385107e-01 1.41246200e-01 2.51479577e-02 -4.61107492e-02
      -1.28070250e-01 -1.32454768e-01 -4.12351973e-02 -7.80820772e-02
      3.31579521e-02 4.96194959e-02 7.55805820e-02 1.10613899e-02
      -5.39111197e-02 -1.75688326e-01 -4.23179641e-02 3.31858359e-02
      -1.58581212e-02 -4.84919585e-02 -9.86991823e-03 5.43103963e-02
      5.47732823e-02 1.22426881e-03 -5.29822446e-02 -8.51728097e-02
      3.07782907e-02 -1.77499615e-02 1.01211164e-02 -6.95608929e-03
      2.38753832e-03 -3.42200184e-03 -5.39926998e-02 -9.29345936e-02
      -1.16100989e-01 -7.20974281e-02 -2.84537878e-02 7.43170828e-02
      2.52427012e-02 4.38756496e-02 7.57341739e-03 -4.85624149e-02
      -1.34650111e-01 -8.76716003e-02 -3.79395881e-03 3.33126597e-02
      1.24450006e-01 7.46544218e-03 -5.81843965e-03 -3.07909492e-02
      -6.39029294e-02 -1.16332985e-01 -1.37285128e-01 -9.82971396e-03
      -4.08583395e-02 1.06228620e-01 6.27557933e-02 2.58000735e-02
      -4.39825817e-06 -3.86115797e-02 -1.59693465e-01 -9.91702676e-02
      -4.89959456e-02 -3.15949246e-02 1.01837039e-01 1.83831397e-02
      -3.57288755e-02 3.45665850e-02 4.63496149e-02 -7.85078704e-02
      -5.40833101e-02 7.38755707e-03 -5.29117230e-03 5.31645538e-03
      2.81355567e-02 -7.89903775e-02 -6.83286637e-02 -8.65111202e-02
      -9.81257632e-02 -5.32100201e-02 8.33206251e-03 4.89097647e-02
      7.88585376e-03 1.25962988e-01 1.35281030e-02 -1.29889185e-02
      -4.15046439e-02 -7.51284584e-02 -7.76822940e-02 -4.46844660e-02
      -5.30524878e-03 -3.46735306e-02 1.64927579e-02 -8.29159766e-02
      -3.03208902e-02 8.77376460e-03 -3.59094664e-02 -4.01066802e-02
      -5.20098917e-02 -2.16626301e-02 -9.49260686e-03 1.04378551e-01
      4.30293642e-02 -4.33902349e-03 1.73532926e-02 -1.77221298e-02
      -5.68486042e-02 9.00328334e-04 1.95727572e-02 1.17463926e-02
      1.33905441e-01 -3.63343512e-04 -2.23476496e-02 -2.10416559e-02
      -6.25938252e-02 -7.18591139e-02 -5.72575349e-03 -1.28081557e-03
      1.55683253e-02 8.62333179e-02 -2.39547510e-02 -1.45242587e-02
      -3.29145533e-03 -4.81731519e-02 -1.47597911e-02 -3.17555182e-02
      -3.38736810e-02 -3.15671787e-02 -1.11152023e-01 -7.54239596e-03
      -5.20008355e-02 -2.16947962e-02 -2.58537233e-02 -1.20829642e-02
      3.77792902e-02 4.97177094e-02 2.29789391e-02 6.18686713e-02
      -4.12618741e-02 6.03664783e-04 -2.26014350e-02 -4.48902659e-02
      -6.82463823e-03 -7.54897995e-03 -1.95110422e-02 -1.70165754e-03
      -3.31361257e-02 -1.75136756e-02 -7.98743963e-03 2.94105895e-02
      -2.55164243e-02 -1.25272935e-02 6.34657964e-03 -5.48668094e-02
      -6.28206367e-03 -7.35485405e-02 1.91487521e-02 -2.61906870e-02
      5.85988760e-02 4.87079332e-03 1.22431330e-02 -1.65269356e-02
      -5.15704080e-02 -4.67141271e-02 2.52006724e-02 -7.48088816e-03
      2.75105108e-02 5.09201735e-02 5.64441411e-03 9.58994310e-03
      1.54438037e-02 -6.55689389e-02 -5.09199537e-02 8.83222222e-02
      1.75110307e-02 -1.77135766e-02 6.88946471e-02 3.76609005e-02
      -4.28095693e-03 2.74519213e-02 -7.97142088e-03 8.49310681e-03
      8.76566097e-02 8.37848783e-02 7.03268498e-03 3.59819159e-02
      -7.78002804e-03 -2.30142735e-02 -3.74322664e-03 4.16076146e-02
      -1.24458611e-01 -5.61865643e-02 -7.58099742e-03 6.02841936e-02
      1.12451851e-01 -1.37784863e-02 1.46630835e-02 3.49388346e-02
      -2.20556092e-02 -4.51059937e-02 5.63024320e-02 2.81941071e-02
      -1.52096562e-02 5.56298308e-02 3.89014073e-02 -1.02278953e-02
      2.39020232e-02 -1.48716511e-03 -1.53178677e-01 -7.39504546e-02
      -1.43954620e-01 2.13213861e-02 8.25687051e-02 1.51109034e-02
      -1.89483259e-02 1.90647431e-02 4.83422205e-02 -6.62871450e-02
      -1.41447648e-01 3.12836748e-03 1.17358483e-01 1.60217106e-01
      -4.63386439e-03 -5.80161065e-02 2.13657841e-02 1.66630633e-02
      -1.65922120e-02 -1.32176489e-01 1.59084331e-02 1.02822654e-01
      1.22503795e-01 -1.04083912e-02 9.18487273e-03 3.59957777e-02
      1.25468802e-02 -9.41244438e-02 -1.45561457e-01 -7.53374547e-02
      4.26407158e-02 8.39191228e-02 4.56498601e-02 2.98147462e-02
      3.44792940e-02 -4.35541235e-02 -2.84013133e-02 -1.09493650e-01
      5.77627197e-02 1.21342622e-01 4.97216955e-02 9.06527415e-03
      -1.13553457e-01 -2.40582246e-02 -5.99561892e-02 -7.87608996e-02
      -1.57277972e-01 -2.72050239e-02 6.17862679e-02 -3.30250617e-03
      -9.48164091e-02 -6.90887719e-02 -7.52034318e-03 -4.90604118e-02
      -8.04197937e-02 -6.28232881e-02 -2.00960692e-02 4.89135273e-02
      1.90796610e-02 -9.65707153e-02 -3.54403481e-02 -5.26936771e-03
      -8.51865336e-02 -9.13967118e-02 -7.97093585e-02 8.41607153e-02
      1.61998406e-01 8.37144256e-02 -6.53710961e-02 4.27428037e-02
      4.72773351e-02 2.76325457e-02 3.14728217e-03 1.45490142e-02
      8.14180821e-02 2.25144476e-01 1.95785016e-01 5.13049662e-02
      -4.84794825e-02 7.31591275e-03 -3.95223498e-02 4.70330231e-02
      4.15070541e-02 3.13066654e-02 3.26011106e-02 7.84313977e-02
      -6.50567636e-02 -4.15111855e-02 -4.96841930e-02 -9.84959602e-02
      -8.80582538e-03 -2.08925009e-02 -1.11654936e-03 5.33269234e-02
      9.32150483e-02 9.98017611e-04 7.59657472e-02 6.38165772e-02
      -7.19648181e-03 -1.78444537e-03 -7.32485875e-02 2.53551155e-02
      1.32256672e-01 1.80281922e-01 1.25374526e-01 6.36284752e-03
      -5.80346631e-03 -1.06540337e-01 -1.22052029e-01 -8.01655203e-02
      -5.38789593e-02 6.46457970e-02 5.04108407e-02 1.00894488e-01
      -3.60907950e-02 -4.70109433e-02 -4.01721559e-02 -6.56197146e-02
      8.65424145e-03 -5.08295707e-02 1.18113607e-02 3.69378030e-02
      2.06848746e-03 -1.70987062e-02 1.27310092e-02 2.31052674e-02
      2.79906765e-02 8.59028921e-02 6.12568529e-03 -7.55104423e-03
      -4.72002802e-03 -1.45579539e-02 2.03429405e-02 -5.47345448e-03
      -5.59308492e-02 -1.26058906e-01 -2.64398698e-02 -6.53388873e-02
      7.35417707e-03 3.04938457e-03 4.62522656e-02 3.54309119e-02
      8.91740173e-02 2.58533005e-02 3.34807038e-02 4.62645628e-02
      -3.71183851e-03 -4.64972015e-03 2.79141776e-03 2.11921651e-02
      1.75628462e-04 6.70974776e-02 2.16160193e-02 3.64393666e-02
      -1.39650926e-02 -7.10140308e-03 -1.60486214e-02 -4.21257364e-03
      -2.05471776e-02 -8.91005807e-03 8.74269158e-02 6.51561469e-02
      4.70481161e-03 1.04603050e-02 -2.00040583e-02 2.64379173e-03
      -2.67228037e-02 -5.35601452e-02 3.56312022e-02 1.19923517e-01
      5.19757271e-02 9.00772214e-02 -1.21885687e-01 3.10093816e-02
      1.87879745e-02 2.18380131e-02 -6.77811680e-03 6.66220579e-03
      1.14588320e-01 4.77382056e-02 4.24547773e-03 3.02590746e-02
      -1.03086969e-02 -1.25719630e-03 -1.43452478e-03 -2.72366442e-02</_>
    <_>
      -3.60281616e-02 9.79006737e-02 4.32953723e-02 -8.55107512e-03
      2.29170788e-02 -7.01647848e-02 -5.94306588e-02 -6.20105118e-03
      -7.91071132e-02 -4.95059788e-02 2.95765977e-02 -6.83711022e-02
      -1.28678963e-01 9.64747667e-02 1.13837309e-02 -5.20354733e-02
      -2.08530836e-02 -7.04666227e-02 1.01863919e-02 1.07911825e-01
      5.29535897e-02 -4.50303731e-03 2.14113984e-02 -8.10912549e-02
      -7.72199184e-02 -5.96067794e-02 -1.63101610e-02 4.07646373e-02
      1.34803578e-01 9.07891393e-02 3.54579017e-02 7.78242350e-02
      -1.59035791e-02 -1.58388481e-01 -6.81490749e-02 -1.42281619e-03
      -6.80171624e-02 3.58884186e-02 -2.84078922e-02 -1.07289061e-01
      3.26966532e-02 -2.75689028e-02 -4.55357432e-02 -4.32954617e-02
      -7.42118284e-02 -2.66575161e-02 6.78648725e-02 7.96962678e-02
      -1.38559984e-02 -3.87556106e-03 -3.53943743e-02 -1.78788882e-02
      -6.90515153e-03 -8.77432711e-03 -2.44205222e-02 2.27277860e-01
      1.54627681e-01 5.58545068e-02 7.35232532e-02 -1.28894057e-02
      -1.46796629e-01 -8.94408152e-02 -8.14590305e-02 3.20494808e-02
      8.93248916e-02 1.71224520e-01 -7.47651746e-03 3.74786854e-02
      -6.07288256e-02 -9.89428759e-02 -4.50802445e-02 -2.54815239e-02
      -1.86299667e-01 -6.47833869e-02 1.95288528e-02 3.58197577e-02
      -3.44770253e-02 -7.08036451e-03 -4.14139815e-02 4.46667196e-03
      -5.39320819e-02 -3.56297344e-02 5.84706722e-04 8.30362737e-03
      4.37333286e-02 -2.27210242e-02 8.92802700e-02 -3.08177993e-03
      9.10639167e-02 5.00368606e-03 -1.43143192e-01 -3.72584909e-03
      8.71238336e-02 5.29087409e-02 -2.46116649e-02 5.99619411e-02
      -4.47499938e-02 -2.06032358e-02 -7.67519623e-02 -8.58864188e-03
      9.04577151e-02 8.48008245e-02 4.80386056e-02 5.49413040e-02
      7.69500732e-02 -5.73703134e-03 4.41577733e-02 7.28417560e-02
      6.65249676e-02 6.06805421e-02 3.28177889e-03 -3.01587749e-02
      -1.21848986e-01 -6.52684122e-02 2.51053814e-02 1.48979217e-01
      -4.16928390e-03 3.57333049e-02 1.14487365e-01 6.39087483e-02
      -4.19657417e-02 -1.01856820e-01 -1.63053572e-01 -1.66461132e-02
      1.45903649e-02 -8.64951983e-02 -3.50012407e-02 9.71645340e-02
      5.00384793e-02 2.82374583e-02 2.36753169e-02 3.15841176e-02
      4.33572680e-02 9.00275931e-02 7.75177078e-03 2.48325476e-03
      1.79318264e-01 1.02455191e-01 7.96179250e-02 -3.30666378e-02
      -2.41645593e-02 -3.35373208e-02 4.53847572e-02 -4.43990249e-03
      -6.91382289e-02 7.49951154e-02 9.86638367e-02 4.60489914e-02
      -4.36113067e-02 -3.71958315e-03 9.47763491e-03 3.30235027e-02
      -1.19884022e-01 -1.45079508e-01 2.14900654e-02 9.10417642e-03
      2.18132907e-03 4.03223671e-02 1.34114930e-02 6.71185926e-02
      7.17666745e-02 -1.06799282e-01 6.90083280e-02 2.03203976e-01
      7.74629042e-02 1.38159752e-01 4.35017496e-02 4.74287234e-02
      5.13406545e-02 6.93299323e-02 1.67091638e-02 -1.16289519e-01
      -6.17315471e-02 -1.00263134e-01 -7.02665374e-02 -8.85770842e-02
      5.81011809e-02 4.03027460e-02 3.30935158e-02 -6.89402968e-02
      -6.33624941e-02 8.47354010e-02 5.30403815e-02 -4.71073017e-02
      8.50244388e-02 1.68656707e-02 6.88081607e-02 4.22477350e-02
      -8.45227987e-02 -8.64143483e-03 7.46660531e-02 4.11864556e-02
      -3.91386263e-02 -2.13581845e-02 -1.82064362e-02 -1.54251838e-03
      5.15849032e-02 -7.06409477e-03 -9.08692032e-02 2.39878260e-02
      -5.12038767e-02 -4.09776121e-02 8.19497742e-03 1.24184834e-02
      8.39498639e-02 6.64295070e-03 -8.80927667e-02 -5.07398928e-03
      5.49867712e-02 4.00388055e-02 5.03288545e-02 -3.58040147e-02
      3.14665623e-02 1.43444296e-02 1.11371698e-02 -7.30175376e-02
      -9.93120018e-03 9.72712189e-02 7.12866113e-02 5.56294806e-02
      -1.37588773e-02 5.24187833e-02 1.14306007e-02 3.29933427e-02
      3.67245749e-02 -4.06503584e-03 3.04134395e-02 2.03780755e-02
      9.18393303e-03 9.27430950e-03 2.77189519e-02 3.29507999e-02
      7.06586093e-02 3.83210517e-02 6.32755132e-03 5.69577292e-02
      7.67835528e-02 8.83105770e-02 -1.21189207e-01 5.58187887e-02
      2.40170415e-02 -2.46939659e-02 -9.93315950e-02 -4.95113842e-02
      8.70816503e-03 5.57923838e-02 -4.60082758e-03 2.07716823e-02
      3.80059034e-02 2.07925998e-02 -9.47537483e-04 -1.35220215e-02
      -4.44719754e-02 -1.02138938e-02 -1.43457688e-02 -6.38628826e-02
      -3.44609022e-02 -6.21266477e-02 -6.82437047e-02 -7.72083849e-02
      -9.52033550e-02 -3.67782339e-02 5.17897159e-02 9.57238823e-02
      1.38252586e-01 -3.67901325e-02 1.18609825e-02 -7.60266334e-02
      -1.01996481e-01 -8.59159380e-02 1.02376677e-01 3.07812635e-02
      -1.61775723e-02 -6.15938045e-02 -1.93294622e-02 -1.96829066e-01
      -7.15518445e-02 2.03491561e-02 4.05801944e-02 1.29444063e-01
      2.40801293e-02 1.08431198e-01 1.45846739e-01 -6.06695265e-02
      -6.43774793e-02 -6.07703859e-03 -3.85860316e-02 9.72858965e-02
      -6.26000538e-02 7.69022182e-02 1.26854956e-01 1.03399590e-01
      -2.90096104e-02 -2.57910546e-02 -1.47106469e-01 -7.87027180e-02
      -9.16502774e-02 -6.21284470e-02 8.09834749e-02 8.65467414e-02
      -5.18174917e-02 -7.96959996e-02 -9.69621167e-02 -1.75834551e-01
      -1.28053531e-01 -7.14874417e-02 8.45539495e-02 4.85635474e-02
      8.73627141e-02 1.04705043e-01 -4.68728952e-02 7.14391768e-02
      8.99206325e-02 1.67377330e-02 9.01755691e-02 8.76038000e-02
      1.60212770e-01 -2.40515284e-02 -6.40458092e-02 -7.34854937e-02
      1.17957555e-01 -1.10885706e-02 2.06893682e-02 5.36822341e-02
      -7.74402916e-02 3.98512669e-02 8.36905390e-02 -2.59378031e-02
      -7.57304430e-02 -5.02922833e-02 -8.91255811e-02 -7.29398280e-02
      -1.25397742e-01 -7.26817250e-02 7.92335570e-02 8.38737562e-02
      8.76595974e-02 3.46000008e-02 7.20274821e-02 5.80813922e-02
      -2.45052148e-02 -4.79528010e-02 -2.92715360e-03 -6.34000311e-03
      -5.10561727e-02 -1.46222383e-01 -1.17491163e-01 4.13407618e-03
      -4.60934602e-02 -6.75649717e-02 4.08739084e-03 -8.46860781e-02
      -8.58845264e-02 -6.62054121e-02 -8.96947226e-04 -2.40715481e-02
      2.18586270e-02 1.50312530e-02 -6.80846944e-02 -2.22623814e-02
      -1.21752888e-01 2.16906127e-02 1.80632565e-02 -3.49000320e-02
      5.50131202e-02 5.52629381e-02 9.32991579e-02 -3.92942950e-02
      1.87536600e-04 -4.44313772e-02 5.01290038e-02 -3.87970470e-02
      2.42369771e-02 -1.92554444e-02 -1.22290403e-01 -1.95812136e-02
      4.48433645e-02 -1.04992531e-01 -1.60517156e-01 -2.26545006e-01
      -1.73475847e-01 -2.21780818e-02 9.93530899e-02 3.69516537e-02
      -6.62896875e-03 -1.26600280e-01 3.58628966e-02 -5.56929968e-02
      -1.35817274e-01 -1.05356701e-01 -5.43599501e-02 -2.21057273e-02
      -1.24885872e-01 -7.67285079e-02 -8.13635960e-02 1.57911126e-02
      6.22328147e-02 1.31035015e-01 5.45225255e-02 1.14362188e-01
      1.53397443e-03 -3.65634039e-02 9.09227133e-03 5.84832840e-02
      -1.92243848e-02 -5.76829389e-02 -3.00611444e-02 -4.69056666e-02
      -8.54516625e-02 -1.34994566e-01 -5.36513515e-02 1.25778187e-02
      8.01212061e-03 -8.05834979e-02 8.45865384e-02 5.01717404e-02
      6.28497358e-03 -3.71515825e-02 -7.28265494e-02 -1.83330014e-01
      -5.65211736e-02 -3.49466540e-02 1.61541291e-02 -8.67573731e-03
      -2.46248655e-02 -1.52071109e-02 -5.68909794e-02 -1.16899319e-01
      -6.78755194e-02 -4.70950902e-02 -7.77135566e-02 -4.18008529e-02
      -9.21943486e-02 1.68757346e-02 -1.98780503e-02 1.50254453e-02
      -1.84106380e-02 -4.08437699e-02 1.16711415e-01 -4.64154035e-02
      -1.18118785e-01 -1.61605664e-02 6.17193840e-02 5.87171800e-02
      7.31401816e-02 -3.05903926e-02 -7.69483373e-02 2.33265478e-02
      -5.72942756e-02 -1.17404491e-01 4.95970473e-02 1.23911109e-02
      -1.68106519e-02 2.87333485e-02 -2.13436615e-02 -2.60552447e-02
      1.30006284e-01 -3.77390161e-02 -1.07370382e-02 5.65372333e-02
      4.34034914e-02 -2.17602383e-02 -6.24219738e-02 -2.76487283e-02
      -1.05143465e-01 1.03579372e-01 5.61253279e-02 5.49156815e-02
      -6.89855590e-02 3.22870761e-02 7.04798400e-02 4.95882481e-02
      -9.89105999e-02 -5.23975352e-04 1.63332578e-02 -5.10273203e-02
      -1.65668234e-01 -1.21605992e-01 -7.40135089e-03 4.54083756e-02
      -9.82095860e-03 1.80797912e-02 5.90049941e-03 1.37316864e-02
      -9.13167223e-02 -1.34411991e-01 2.63806116e-02 3.30578648e-02
      3.21324617e-02 -4.82784910e-03 -7.11860433e-02 -1.11560558e-03
      1.20307002e-02 2.29600482e-02 6.86083268e-03 -3.29494625e-02
      -1.09056905e-02 2.95121260e-02 4.11619805e-02 2.43312024e-04
      -1.58372633e-02 -2.42326055e-02 -3.55317183e-02 -5.00704087e-02
      9.21219289e-02 1.21278474e-02 -5.23295850e-02 -8.04456398e-02
      -7.42448419e-02 -1.65857151e-01 -5.61817884e-02 2.65854481e-03
      2.77172774e-02 1.18897133e-01 3.04759797e-02 3.79539877e-02
      7.85033032e-02 -6.97156638e-02 -1.22626670e-01 6.90048337e-02
      9.35587659e-02 7.68797472e-02 -1.50723464e-03 -3.43842395e-02
      -4.35915738e-02 5.17547391e-02 -7.31138065e-02 -6.32756129e-02
      -8.06666091e-02 2.48757415e-02 -1.22180013e-02 1.96042825e-02
      -1.09566674e-02 -6.51597083e-02 5.78421988e-02 2.68216394e-02
      -7.21717402e-02 4.87956516e-02 3.57705280e-02 -1.47164770e-04
      8.15789178e-02 9.78315249e-03 3.11018787e-02 5.42302318e-02
      -3.10262516e-02 2.66769268e-02 8.87108743e-02 6.88866004e-02
      3.76420692e-02 5.68578392e-02 8.10770467e-02 2.96418602e-03
      -1.16350688e-01 -3.76968980e-02 1.14159942e-01 1.82638675e-01
      1.08683512e-01 5.47652282e-02 -9.57528222e-03 -3.60769294e-02
      -7.25222081e-02 -1.25697302e-02 1.42870406e-02 -2.74089514e-03
      5.64701781e-02 3.53820659e-02 -1.43404137e-02 4.71864119e-02
      5.96739873e-02 5.38524892e-03 -5.55064678e-02 -2.12120451e-03
      9.94070247e-03 1.13704376e-01 9.00618061e-02 2.66143065e-02
      -2.90252157e-02 4.23805937e-02 1.44044543e-02 -7.74225742e-02
      2.82016899e-02 -1.10691190e-02 9.69159678e-02 9.65749994e-02
      5.94491474e-02 -1.36796683e-01 -1.07404031e-01 -5.90147302e-02
      2.71783974e-02 1.40309632e-01 2.59801801e-02 5.60517199e-02
      5.79598919e-02 -1.49455983e-02 -7.59732500e-02 -4.21490520e-02
      -4.08745669e-02 2.47994531e-02 1.22094400e-01 -2.75082067e-02
      5.09876423e-02 9.84781310e-02 -8.13927036e-03 -2.63572246e-01
      -1.15223929e-01 -6.51294664e-02 6.63397312e-02 7.02240691e-02
      -7.93500990e-02 -5.80420271e-02 1.28288819e-02 -1.34239808e-01
      -1.47281289e-01 -1.93529397e-01 -1.60290062e-01 6.15402050e-02
      1.09787367e-01 3.67098227e-02 6.20726384e-02 -1.14888735e-02
      2.27186084e-02 -2.74960287e-02 -1.19630307e-01 -1.40172720e-01
      -4.86419760e-02 -6.64343238e-02 -5.28137237e-02 3.79811488e-02
      -3.45510915e-02 7.70788789e-02 -1.75609037e-01 -9.49207619e-02
      -6.68263435e-02 3.78911234e-02 1.09154873e-01 -1.21386535e-02
      -4.86265942e-02 4.99916971e-02 -6.45130873e-02 4.10031416e-02
      -4.71736044e-02 -4.38811518e-02 4.63148914e-02 6.33436581e-03
      3.14799999e-03 6.99322522e-02 1.06205851e-01 9.96552035e-02
      7.10892826e-02 -1.34353507e-02 -7.32474076e-03 -1.16789296e-01
      -1.20013542e-01 -5.43840602e-02 6.14896789e-02 6.80538267e-03
      9.77342278e-02 -8.27217195e-03 -4.08093631e-02 2.18738541e-02
      -1.38290916e-02 -1.07636802e-01 -1.44684287e-02 -2.27093492e-02
      -9.65667814e-02 1.48464348e-02 1.06280565e-01 9.79188364e-03
      -2.10675001e-02 -2.60703713e-02 -6.09359145e-02 -2.63109114e-02
      9.10512954e-02 1.04706801e-01 1.22675613e-01 -3.17522474e-02
      -9.18455273e-02 -2.81377006e-02 -5.64160496e-02 -6.38790578e-02
      -3.41579542e-02 1.04982562e-01 6.98999688e-02 2.54865866e-02
      1.33339204e-02 -4.72896546e-02 -3.29095237e-02 5.10425121e-02
      -3.53242382e-02 -6.47747740e-02 3.54416370e-02 -1.68438852e-02
      1.24719730e-02 4.43573482e-02 7.02940905e-03 -5.22016361e-02
      -1.68810897e-02 -7.25454167e-02 -1.34428620e-01 6.58208504e-02
      8.52971226e-02 8.13112482e-02 -3.05641815e-02 -3.19338627e-02
      -3.63537036e-02 1.22271642e-01 4.81093414e-02 -7.25216269e-02
      1.25017867e-03 1.45002725e-02 2.11795103e-02 1.26456739e-02
      -2.15963945e-02 -4.56182770e-02 -3.58931310e-02 -3.18585150e-02
      -6.56832606e-02 -1.84241217e-02 2.82862503e-02 1.02107607e-01
      6.04373962e-02 5.37972264e-02 2.24269107e-02 -3.75578515e-02
      -1.48369461e-01 -3.40756662e-02 -2.64720479e-03 5.73142059e-02
      7.45869726e-02 1.35611631e-02 2.61753276e-02 6.32682219e-02
      2.08186321e-02 -3.90878245e-02 -4.91372794e-02 -3.88174318e-02
      -2.82805245e-02 -1.26233138e-02 5.31392023e-02 2.45559271e-02
      -1.49272745e-02 -2.46888325e-02 -7.50099719e-02 2.68447935e-03
      1.17045268e-02 1.32707991e-02 6.67593330e-02 1.26365023e-02
      3.66084762e-02 1.39696281e-02 -1.05389833e-01 -6.08206540e-02
      -6.51563779e-02 -2.69773696e-02 -4.76896241e-02 -1.02097448e-02
      -3.32780145e-02 -1.11618295e-01 -1.28774708e-02 9.64475982e-03
      -5.65296113e-02 -3.69925611e-03 -8.12083259e-02 -7.66589679e-03
      -3.27974297e-02 7.78359268e-03 -6.52268529e-02 -7.75501952e-02
      3.80442291e-03 1.07175127e-01 -3.74340750e-02 -3.79871279e-02
      -1.81794930e-02 -2.43939385e-02 -4.73919585e-02 -6.31096810e-02
      -6.32003471e-02 3.88093963e-02 -4.25662771e-02 9.23668593e-02
      -2.92525366e-02 3.80361429e-03 3.17743921e-04 1.88834742e-02
      -2.84502916e-02 -1.03990072e-02 3.41663435e-02 7.43783116e-02
      -1.75307058e-02 1.47827538e-02 -2.86384560e-02 3.45818838e-03
      2.20569670e-02 -2.41687149e-02 -5.62390946e-02 -3.45352516e-02
      5.17104343e-02 -4.50185202e-02 -1.54990964e-02 7.71575700e-03
      9.12520103e-03 1.70528479e-02 2.02989187e-02 -5.18608876e-02
      -2.73225140e-02 8.70332867e-02 -4.12734371e-04 -5.97541267e-03
      4.08210531e-02 2.49034371e-02 3.99638079e-02 1.56462914e-03
      -5.47956415e-02 -9.54946876e-03 4.07432802e-02 1.43468881e-03
      -2.38413513e-02 2.00415123e-02 4.42215241e-02 5.06905057e-02
      4.98517342e-02 -4.77728248e-02 -9.29204747e-02 1.35934381e-02
      7.67753422e-02 -4.25539725e-03 1.08629189e-01 6.68704584e-02
      -8.07932988e-02 -3.89370369e-03 -4.09541056e-02 8.86434503e-03
      6.54826835e-02 3.50887030e-02 5.79206534e-02 5.72647341e-02
      1.73789021e-02 -2.18541250e-01 -3.46338563e-02 2.52634734e-02
      1.51251946e-02 -4.22425419e-02 -1.09936416e-01 -1.04509972e-01
      6.54204143e-03 -7.65831843e-02 -2.34609731e-02 9.89489183e-02
      2.91033508e-03 3.37700471e-02 5.63978218e-02 1.19202383e-01
      7.98145756e-02 1.11990824e-01 1.17766336e-02 -1.67443588e-01
      2.75126267e-02 -4.38359845e-03 4.75545414e-02 4.00247760e-02
      3.59332631e-03 -5.74311018e-02 -3.42960889e-03 -1.26694381e-01
      -1.38641551e-01 -4.02519070e-02 -4.87206988e-02 6.39642254e-02
      1.16667740e-01 -1.42043769e-01 -1.50844380e-01 6.46940805e-03
      -6.02384657e-02 4.76869335e-03 -3.16581614e-02 -4.88227792e-02
      8.57733935e-02 8.15755203e-02 -4.83375750e-02 -7.22263847e-03
      3.71699594e-02 2.52514780e-02 -1.63995862e-01 -1.92340687e-02
      -4.34879996e-02 4.98090610e-02 1.37203187e-01 -1.30401170e-02
      -1.58916235e-01 -3.41673903e-02 -1.51815355e-01 1.53786736e-02
      7.91338179e-03 -7.90184364e-02 3.94948572e-02 3.95026766e-02
      2.34972257e-02 -1.40262663e-01 -7.33283907e-02 -8.06221440e-02
      7.65518323e-02 2.00519431e-02 1.49467224e-02 -3.30825895e-02
      -6.46201149e-02 4.15057391e-02 -3.58613674e-03 9.04030055e-02
      8.66286382e-02 -3.21208709e-03 -2.94125509e-02 -1.07596777e-02
      -6.40844107e-02 -1.33838341e-01 -8.88874307e-02 2.89786384e-02
      3.57316458e-03 1.55850872e-02 8.16738755e-02 5.71924597e-02
      -3.10728123e-04 -9.21911448e-02 -7.54231438e-02 6.88389167e-02
      4.37989160e-02 1.00327805e-02 3.89571264e-02 9.63469446e-02
      7.37743005e-02 -7.16990442e-04 -2.57449336e-02 -7.86311701e-02
      2.81902179e-02 4.23955843e-02 -7.48916576e-03 -1.88441183e-02
      -4.85072955e-02 -2.69390196e-02 -3.57027203e-02 3.18796933e-02
      5.85146174e-02 -2.64729299e-02 2.71735042e-02 -1.66028291e-02
      -4.50809821e-02 -2.49469038e-02 -6.05311617e-02 -1.01638354e-01
      -8.13034102e-02 3.30902785e-02 -1.55661497e-02 -2.70753130e-02
      -4.98179384e-02 2.69691693e-03 1.68740191e-02 6.87440392e-03
      -5.17082810e-02 -8.23675003e-03 3.06016300e-02 5.38333617e-02
      1.56933423e-02 -2.39761919e-02 -4.33982983e-02 -4.01687063e-02
      -3.69336805e-03 -2.84151733e-02 -9.09921005e-02 -5.21323122e-02
      -2.80446522e-02 -5.23323417e-02 8.61637387e-03 5.08509725e-02
      2.72825658e-02 -4.80482634e-03 -6.24262244e-02 6.54622633e-03
      -2.62699481e-02 -2.49012234e-03 -5.43089174e-02 -3.99749950e-02
      1.06140561e-02 5.31955296e-03 1.75842680e-02 -1.92745849e-02
      -5.48629537e-02 -5.40410168e-02 -5.74544668e-02 -2.21923497e-02
      -5.08624427e-02 -3.24137248e-02 1.92291457e-02 2.96318419e-02
      9.15886543e-04 1.86262578e-02 -1.26619324e-01 -3.13045718e-02
      -1.77578777e-02 2.18908489e-02 4.37299237e-02 -2.25670519e-03
      1.85114797e-02 -4.86698980e-03 4.01555188e-02 -8.66006091e-02
      -4.55850326e-02 2.08873842e-02 -2.14377884e-02 -2.65384410e-02
      -3.43020968e-02 -3.41610834e-02 -4.74750670e-03 1.46229506e-01
      -9.69213061e-03 7.16990307e-02 -7.48568494e-03 4.50491440e-03
      6.19505445e-05 -2.81654559e-02 -3.13274674e-02 -4.30252664e-02
      3.07426471e-02 9.06755328e-02 8.22206028e-03 -6.29507229e-02
      -7.30840564e-02 -2.94623747e-02 -2.82699857e-02 -5.32500707e-02
      -5.20107299e-02 1.55384958e-01 2.96339653e-02 2.19449047e-02
      -2.51515601e-02 -1.52152345e-01 -1.97415650e-02 -7.06138313e-02
      -1.13646261e-01 -1.43336087e-01 -1.73051544e-02 1.81360498e-01
      8.24675187e-02 -3.04307602e-02 -1.27552658e-01 -5.55521660e-02
      -6.19847840e-03 -9.72494204e-03 -3.37849520e-02 -2.30182838e-02
      -3.26970704e-02 -1.62961017e-02 -6.44781301e-03 1.72423478e-02
      -3.94647243e-03 4.31989171e-02 6.02505021e-02 4.17171381e-02
      1.02036691e-03 8.91940743e-02 1.31895408e-01 2.60971300e-02
      1.06307067e-01 5.01091145e-02 -3.27924751e-02 -7.20986277e-02
      -2.06881370e-02 -3.04570887e-02 6.12393999e-03 -3.45938578e-02
      -5.21993265e-02 2.40804665e-02 2.59579085e-02 6.17573485e-02
      5.49709387e-02 7.55044073e-02 5.40092364e-02 2.61637792e-02
      9.42819864e-02 6.01041876e-02 1.25882745e-01 -4.88040829e-03
      5.30554913e-02 6.62487298e-02 -6.25419430e-03 -2.74698046e-04
      1.06759733e-02 3.75215411e-02 6.57178834e-02 2.78137513e-02
      1.12671833e-02 -1.75743774e-02 -3.18095018e-03 -5.93382493e-02
      -2.89055910e-02 9.79337990e-02 -3.07646226e-02 -1.88819284e-03
      -8.46458822e-02 -8.19650590e-02 2.05629990e-02 1.50368148e-02
      -4.31941710e-02 3.78800854e-02 9.11732316e-02 7.64530152e-02
      9.48483124e-02 3.42914388e-02 -4.40984182e-02 -5.15830480e-02
      -4.44083661e-02 -8.17329362e-02 -5.33734960e-03 6.69417158e-02
      3.21620516e-02 1.82542223e-02 -1.88430905e-01 -1.54899001e-01
      -9.57099795e-02 4.68846550e-03 -5.97772487e-02 1.06805056e-01
      1.73862323e-01 9.38919280e-03 -4.97995391e-02 -6.33521229e-02
      -1.99797362e-01 2.39889808e-02 5.63706905e-02 -6.34421483e-02
      -2.68710665e-02 8.01753700e-02 -5.01136333e-02 -5.77975698e-02
      -1.13735780e-01 -9.53938141e-02 -1.36655852e-01 -1.86900105e-02
      -8.65327492e-02 1.32298146e-05 1.91264987e-01 1.17259189e-01
      1.70642268e-02 -1.63668111e-01 -2.19154522e-01 -7.13138655e-02
      8.47516395e-03 -1.40092775e-01 -1.44045606e-01 8.26654211e-02
      8.16743150e-02 -4.82397825e-02 -1.43167824e-01 -1.30155131e-01
      6.62111640e-02 4.82637137e-02 -5.61867990e-02 -1.74172238e-01
      -1.41889989e-01 -4.83489558e-02 -1.99939981e-02 -1.01084843e-01
      1.70274545e-02 7.96695873e-02 8.79546627e-02 -1.08661493e-02
      -5.85671887e-02 -2.23485250e-02 -3.54221389e-02 2.87898164e-02
      -1.89591933e-03 6.70942888e-02 3.61039974e-02 3.50031033e-02
      -3.19652781e-02 -1.11822784e-01 -6.19872659e-02 3.56753245e-02
      -2.80631147e-02 -9.20050517e-02 -3.49345244e-02 3.67224179e-02
      1.04243077e-01 4.26944569e-02 1.29309952e-01 4.64867726e-02
      -3.96142043e-02 -1.41599076e-03 -1.05638281e-02 1.54063059e-02
      1.04075789e-01 5.80888167e-02 -9.10426397e-03 -2.98857130e-03
      -2.74334569e-02 7.16500655e-02 4.86076362e-02 9.40454826e-02
      1.15189403e-01 5.52461892e-02 5.78305684e-02 7.38305598e-02
      -8.07533190e-02 -1.88601196e-01 -2.52079666e-02 -2.28692088e-02
      9.48657021e-02 8.99183005e-02 3.41033377e-02 5.61059266e-02
      4.94086929e-02 3.57849747e-02 -7.26999789e-02 -5.46393208e-02
      4.37191799e-02 7.34115466e-02 4.38766368e-02 5.87471342e-03
      2.83895377e-02 1.23305395e-01 -9.91793498e-02 -1.70807868e-01
      -1.12401694e-02 -9.52337217e-03 1.74202397e-02 4.13621252e-04
      7.47780688e-03 7.19798505e-02 7.92280361e-02 8.49266276e-02
      -1.06762499e-01 -2.91472618e-02 -1.30756933e-03 3.84628512e-02
      3.81371826e-02 -6.09336533e-02 -4.19610031e-02 -6.40675053e-03
      6.78698197e-02 -4.04585861e-02 -4.39171679e-02 -3.35949054e-03
      -2.25439593e-02 -1.73379909e-02 -3.10429204e-02 1.68422703e-02
      1.33852229e-01 5.02373539e-02 -1.37821674e-01 -7.73837268e-02
      -1.21442517e-02 -1.13643566e-02 5.02352975e-03 -1.28604919e-01
      -7.15380162e-02 3.33977304e-02 -2.36493926e-02 -1.13010984e-02
      -1.25743493e-01 -1.07881606e-01 -7.03654811e-02 -3.88820209e-02
      6.77237958e-02 -2.66893134e-02 -5.21278419e-02 1.18851773e-01
      -6.12042751e-03 2.58509591e-02 -6.83238953e-02 -5.93728945e-02
      6.98611885e-02 7.55742639e-02 -4.13196124e-02 -1.02210879e-01
      9.03154258e-03 3.54849249e-02 8.69593024e-02 -1.80457365e-02
      -1.91208180e-02 7.52745867e-02 5.98017424e-02 7.33596878e-03
      -4.43840511e-02 7.78225958e-02 -6.99060410e-02 -2.98222303e-02
      -1.00704789e-01 -2.25958917e-02 1.01290822e-01 1.06193103e-01
      8.78714118e-03 -6.41777888e-02 1.28522618e-02 -4.25005034e-02
      -7.69377202e-02 -2.37032888e-03 7.27909431e-02 1.85594752e-01
      2.05586571e-02 -1.04635231e-01 -8.11030865e-02 -1.21072449e-01
      -6.90739527e-02 -7.21017867e-02 -8.85248035e-02 3.49258631e-02
      1.11867383e-01 1.83883458e-02 -4.53139469e-02 2.62928363e-02
      -2.52876841e-02 2.15914585e-02 8.78741220e-03 1.96712315e-02
      1.00424141e-01 8.12713727e-02 6.68316260e-02 -5.73425926e-02
      -7.54735246e-02 -8.03225040e-02 -7.31937066e-02 -6.40971065e-02
      1.52412395e-03 1.49489671e-01 1.45552412e-01 6.45914078e-02
      -3.14055607e-02 7.93031696e-03 1.43627888e-02 7.28134662e-02
      5.82320616e-02 -1.15864286e-02 1.63704515e-01 1.01472512e-01
      2.45465562e-02 1.66690152e-03 5.00725843e-02 3.92954657e-03
      9.22514796e-02 1.40320882e-01 1.39782310e-01 7.25927651e-02
      -1.50927408e-02 -3.81405465e-02 2.31179390e-02 5.44544905e-02
      -6.67065382e-02 -8.09316412e-02 9.82967317e-02 8.64325240e-02
      -1.10324621e-01 -1.03298157e-01 9.69752222e-02 5.48056774e-02
      7.67185241e-02 7.02043176e-02 1.30032659e-01 1.79778948e-01
      1.01093441e-01 7.24162906e-02 3.56874093e-02 -1.45449080e-02
      6.94021881e-02 2.49368437e-02 -2.02235729e-01 -1.33621320e-01
      6.77931309e-02 3.44173573e-02 -9.83637199e-02 -7.34108314e-02
      -5.53028695e-02 -2.27690246e-02 1.93063822e-02 -2.74184570e-02
      7.32240006e-02 1.59618527e-01 -1.44875026e-03 -1.25163153e-01
      -1.36072576e-01 3.57067026e-02 -6.31838515e-02 -1.07407674e-01
      -1.56529814e-01 6.17584214e-03 2.00408921e-01 5.82060823e-03
      -4.92339879e-02 -8.88404697e-02 4.89551108e-03 1.93271190e-02
      -4.51055355e-02 -1.31691456e-01 -1.07273005e-01 6.33671880e-02
      -3.99878388e-03 -9.73828658e-02 1.16616469e-02 2.80995257e-02
      2.08875239e-02 -9.47881639e-02 -1.59199834e-01 -5.27446941e-02
      1.66533142e-01 -2.25680741e-03 -4.84732985e-02 3.50841545e-02
      6.77116066e-02 -3.60889873e-03 -2.74056103e-02 -1.72523037e-01
      -3.99213098e-03 6.71114996e-02 -4.24857326e-02 -5.02188727e-02
      -7.42990198e-03 -4.40441556e-02 1.65105667e-02 3.46444063e-02
      6.48425743e-02 9.41955894e-02 -3.49497274e-02 -1.02821365e-01
      -8.10215324e-02 -1.07472703e-01 2.32634470e-02 -2.29220726e-02
      -2.36671586e-02 -6.64738491e-02 5.74663989e-02 1.69709902e-02
      -1.09454527e-01 -4.40170243e-02 5.32343984e-02 8.58223718e-03
      -6.84353486e-02 -3.48991603e-02 1.31272882e-01 1.49099186e-01
      -5.11032715e-02 -1.24020040e-01 -1.05240792e-02 2.45564803e-02
      -6.88599348e-02 5.20411693e-02 5.33013754e-02 9.91768911e-02
      4.31741662e-02 -1.11158201e-02 -4.31955047e-02 -3.90781201e-02
      -9.37770680e-02 -6.23728298e-02 2.69561857e-02 2.29882964e-04
      -6.14561215e-02 -5.24887145e-02 -5.72184585e-02 -4.56990637e-02
      -5.51642757e-03 -4.59663793e-02 -3.03727239e-02 -2.04445124e-02
      -1.25099719e-02 1.50447473e-01 1.35841325e-01 -2.86215637e-02
      -9.74443182e-02 1.25617478e-02 -4.15508337e-02 -1.36224991e-02
      3.09534166e-02 -5.02747409e-02 8.17391789e-04 -2.96764653e-02
      -5.14252149e-02 -4.25986685e-02 2.49413457e-02 -3.50177437e-02
      -5.78603446e-02 -5.50037669e-03 4.37121540e-02 -2.94024614e-03
      -9.15172175e-02 -7.89122805e-02 -2.42964774e-02 -1.45287206e-02
      -5.23442477e-02 -1.37670040e-01 -5.66185229e-02 4.91641797e-02
      -8.26457143e-03 7.55874142e-02 -1.53015077e-01 -8.70716721e-02
      -6.17111847e-02 -9.45482776e-02 7.06438906e-03 -2.05494110e-02
      -7.75692705e-03 -5.01992181e-03 -6.12211302e-02 -1.25932932e-01
      -1.71817858e-02 3.41824554e-02 -2.31295805e-02 -1.20140933e-01
      -2.27719769e-02 7.87549391e-02 6.91250637e-02 6.69481009e-02
      -2.26778954e-01 -9.04213414e-02 -3.74373943e-02 -1.86989993e-01
      3.16948077e-04 3.55031043e-02 -8.06513205e-02 -2.89038606e-02
      4.27327584e-03 5.20569552e-03 -5.97186834e-02 4.47706170e-02
      2.91986987e-02 7.40833282e-02 6.24468699e-02 -5.56886457e-02
      2.27597971e-02 -2.76503004e-02 -5.60086444e-02 -2.27932744e-02
      1.02826059e-01 1.31730214e-01 -2.23209094e-02 1.98291447e-02
      -7.37879127e-02 -6.64858967e-02 3.88610028e-02 -3.96529324e-02
      -2.50258204e-02 -2.87910551e-03 -2.23260671e-02 5.51310182e-03
      6.24511950e-02 -6.86570704e-02 -1.79610066e-02 1.19845033e-01
      -3.74754816e-02 -1.05824016e-01 4.37681749e-03 9.82486084e-02
      4.46072454e-03 7.40549415e-02 -3.24461460e-02 1.96600445e-02
      -1.56583786e-02 -1.76542737e-02 -1.90486964e-02 9.56409127e-02
      1.36631886e-02 3.58026512e-02 5.86453490e-02 7.82460570e-02
      3.01290508e-02 7.96533525e-02 4.07617651e-02 3.63541469e-02
      9.70222428e-02 -1.96662378e-02 -7.16550723e-02 9.54906791e-02
      1.23224296e-02 -1.33905765e-02 2.16318760e-02 -2.51104962e-02
      -1.14573583e-01 -4.02281731e-02 -2.27252617e-02 -5.43153435e-02
      1.03588752e-01 3.79194655e-02 -1.43246502e-02 2.91679408e-02
      -2.63790367e-03 -1.66919176e-02 3.02124768e-02 -8.72940719e-02
      5.88586926e-02 6.01895452e-02 3.42725702e-02 7.95049891e-02
      8.02833140e-02 4.57231849e-02 5.83513826e-02 3.96176241e-02
      8.60466249e-03 6.02078363e-02 1.50833192e-04 4.94355243e-03
      5.28203733e-02 -1.16713822e-01 -1.88240095e-03 3.22694369e-02
      -3.84208746e-02 6.69503883e-02 -6.82491437e-02 3.85417491e-02
      -2.08992045e-03 -1.09396428e-02 -6.26156256e-02 -4.82042581e-02
      -3.49422568e-03 -4.85115200e-02 -9.56989378e-02 4.04583216e-02
      -5.04026935e-03 -9.28551927e-02 -6.87220087e-03 -5.78620397e-02
      6.99444041e-02 1.38737336e-01 -2.95411870e-02 -5.49226142e-02
      4.30383757e-02 -4.80784476e-02 -9.62016582e-02 -1.07328326e-01
      -1.71258837e-01 2.73148995e-02 1.56472456e-02 -9.46680158e-02
      -3.44221666e-02 4.89958413e-02 -8.77180789e-03 -8.75579789e-02
      -1.89895734e-01 -1.26040205e-01 6.60882145e-02 7.01250508e-02
      -8.36676452e-03 -2.70519638e-03 4.46495451e-02 5.76661751e-02
      -9.28250402e-02 -1.01383924e-01 -4.05962095e-02 1.08629718e-01
      2.06290662e-01 1.72672614e-01 1.16814384e-02 1.00721247e-01
      4.67978343e-02 -9.26609188e-02 -2.14004815e-01 -8.87119547e-02
      1.24855608e-01 2.57310599e-01 2.90420890e-01 1.24306366e-01
      5.12750894e-02 -3.37485373e-02 3.23104858e-02 -3.54438648e-02
      3.06254392e-03 5.58935944e-03 -9.46802273e-03 2.01527700e-02
      3.20636816e-02 3.07684578e-03 -1.12977251e-01 -1.02543779e-01
      3.52489240e-02 8.40457603e-02 -1.90528892e-02 -5.51349744e-02
      2.90261563e-02 7.64994835e-03 1.46996751e-01 1.14825457e-01
      -1.21395821e-02 -1.10607564e-01 -7.72204772e-02 -1.87411010e-02
      1.83075830e-01 1.84694946e-01 1.51679650e-01 -1.07102860e-02
      -3.13330144e-02 -6.33673593e-02 -3.98961939e-02 2.82061733e-02
      -5.13428189e-02 8.74260366e-02 4.93829213e-02 -1.75234191e-02
      -2.83501577e-02 -8.15273076e-02 -1.68920472e-01 8.02578405e-02
      1.95081487e-01 -5.46888523e-02 -3.50436606e-02 9.48519632e-03
      -1.91358961e-02 -2.53290292e-02 4.28281501e-02 -3.63402143e-02
      6.46307617e-02 3.39156352e-02 -1.24204241e-01 -7.18334839e-02
      -5.71240783e-02 -2.25380659e-02 -6.53730184e-02 -1.32032886e-01
      -1.38258606e-01 9.31373537e-02 2.04146028e-01 -2.40012445e-02
      3.71290259e-02 1.52131924e-02 -1.59756672e-02 -7.22269341e-02
      -4.66509610e-02 -1.07525572e-01 4.30730805e-02 6.50957450e-02
      -6.73136041e-02 3.81210051e-03 1.59209445e-02 -8.31875391e-03
      -5.47557063e-02 2.48387884e-02 5.17467931e-02 1.16390511e-01
      -1.43844662e-02 -5.07136881e-02 9.16352123e-03 9.84941516e-03
      -1.74982697e-02 -1.25166327e-01 9.94266011e-03 9.56692547e-02
      1.11358121e-01 4.19487767e-02 -5.67474440e-02 6.37176773e-03
      1.95964929e-02 -1.19364023e-01 -2.90105306e-02 -2.33343039e-02
      1.21064309e-03 1.24309838e-01 1.60838645e-02 -3.65958922e-02
      -8.22203513e-03 3.34522082e-03 -7.65016899e-02 -6.37334213e-02
      -5.22259101e-02 3.36161442e-02 1.11953400e-01 6.46016002e-02
      -1.72015419e-03 2.82042450e-03 1.36377634e-02 -7.68508464e-02</_>
    <_>
      -3.78011204e-02 2.31224857e-02 8.14030971e-03 3.87418680e-02
      -3.22278379e-03 2.35157553e-02 4.73664328e-02 9.23167914e-03
      -4.06791009e-02 -1.96849741e-02 1.11637572e-02 -4.70062792e-02
      -5.58797196e-02 -6.93980008e-02 8.94211698e-03 4.72000279e-02
      4.21176553e-02 -4.90626395e-02 -5.52212587e-03 3.66986059e-02
      3.20523456e-02 2.94371769e-02 -3.04204952e-02 4.49752733e-02
      -1.76178815e-03 -3.91088352e-02 -1.92388818e-02 3.23408330e-03
      3.49913314e-02 -4.36818674e-02 -6.48324043e-02 6.62419349e-02
      2.57339701e-03 -6.00342313e-03 -4.95637432e-02 -1.67065803e-02
      -5.04758246e-02 -5.34193926e-02 -5.18271774e-02 -8.91743228e-02
      -2.83746012e-02 -3.29872081e-03 4.12267037e-02 3.20789814e-02
      -4.76859286e-02 -5.17608114e-02 2.56800707e-02 8.65789577e-02
      7.21415132e-02 4.73065935e-02 7.88716832e-04 9.70494188e-03
      5.11299446e-03 -5.30421771e-02 -2.26397533e-02 4.67079021e-02
      1.82641856e-02 -3.83593142e-02 6.33746311e-02 6.77683158e-03
      1.09814676e-02 1.29873594e-02 -1.18759600e-02 -1.94720738e-02
      3.48637812e-02 1.15574487e-01 1.54934913e-01 7.43525624e-02
      6.39121979e-02 -1.43547840e-02 4.86881845e-02 2.53523490e-03
      -1.05901398e-01 -7.67520582e-03 1.40061572e-01 1.62846446e-01
      5.92125766e-02 -3.15048918e-02 -2.22299248e-02 -3.94586585e-02
      -7.73946270e-02 -3.02591193e-02 1.63231082e-02 3.47387940e-02
      2.82162726e-02 1.90710537e-02 -5.03635071e-02 2.49059666e-02
      4.95218821e-02 -6.35996535e-02 -9.60358009e-02 -7.07406104e-02
      7.40045831e-02 1.51091829e-01 5.19696064e-02 -5.37340008e-02
      -7.69286081e-02 -1.97403468e-02 -4.13533971e-02 -8.88380595e-03
      -3.05909589e-02 7.41236582e-02 8.29808414e-02 5.04570752e-02
      -1.06599823e-01 -4.43632081e-02 1.33487647e-02 3.96793894e-02
      4.52083498e-02 9.43152059e-04 -6.06587380e-02 -4.12508100e-02
      -4.61967709e-03 -7.00686648e-02 1.85692925e-02 4.95086312e-02
      -2.23643519e-02 3.35350516e-03 -4.34656776e-02 -2.68445965e-02
      1.11633046e-02 8.27684179e-02 -6.89031780e-02 -2.92464197e-02
      -3.15886289e-02 -6.42881840e-02 2.58139763e-02 4.03605625e-02
      9.51278731e-02 6.24056198e-02 5.05447425e-02 -1.02924965e-01
      1.16286874e-02 4.77539040e-02 5.43706194e-02 7.54528642e-02
      8.50179195e-02 1.34242848e-01 1.59708276e-01 -6.11369032e-04
      -4.65907156e-02 -6.70818910e-02 2.19814405e-02 5.04990108e-02
      5.39150182e-03 -5.00142463e-02 2.53107529e-02 6.39959425e-02
      8.28148127e-02 -4.04378325e-02 -5.79871126e-02 -7.05890059e-02
      -1.85615756e-02 -6.72335774e-02 -3.63658965e-02 -4.32831831e-02
      -3.23413406e-03 8.08140561e-02 -7.53668770e-02 -8.60380605e-02
      -6.25551343e-02 -3.21255922e-02 8.67849961e-02 9.73578990e-02
      1.21847175e-01 1.50987372e-01 -4.93235793e-03 -6.46456853e-02
      -2.03361083e-02 -3.30832577e-03 7.43237436e-02 -2.89231855e-02
      -4.93564941e-02 -4.29328978e-02 -5.10681793e-02 -3.04918867e-02
      -1.07631847e-01 -6.98850229e-02 -4.19212729e-02 -6.53131027e-03
      -3.79356146e-02 4.21034778e-03 -1.69679262e-02 -5.78216538e-02
      1.25818536e-01 -1.84408575e-02 -1.30242156e-02 -8.87347665e-03
      -4.87891287e-02 -2.45446227e-02 -5.59645612e-03 1.47140073e-02
      -3.36841159e-02 -1.07024699e-01 -2.78269257e-02 4.77013513e-02
      1.14824995e-02 -2.49518752e-02 -2.35973317e-02 -2.10231543e-02
      -6.25822693e-02 -5.60747944e-02 4.74733077e-02 -1.27868801e-01
      -2.10460722e-02 -2.23185830e-02 -1.96707025e-02 3.96074494e-03
      -1.64667852e-02 3.78291644e-02 3.44704762e-02 -7.70074874e-02
      -5.69411479e-02 3.83474715e-02 8.64345208e-03 1.90986507e-02
      -2.17132438e-02 -1.88902784e-02 2.94428840e-02 7.95013085e-03
      -7.28287315e-03 -1.95207819e-02 1.50322691e-02 -1.80321559e-02
      -4.82691685e-03 -1.58604363e-03 -5.48405107e-03 1.36216357e-02
      -2.50682095e-03 -4.77653258e-02 -3.70385684e-02 -2.69907154e-02
      -2.12764461e-02 -1.41564955e-03 2.71402728e-02 1.81973155e-03
      3.23517174e-02 6.79622442e-02 -2.70228852e-02 -1.72684696e-02
      6.09481968e-02 -6.24184613e-04 3.58361192e-02 2.88037676e-02
      5.17041050e-03 2.03345926e-03 5.20728342e-03 -4.71029803e-03
      -3.58247794e-02 -4.38033231e-02 -3.82341146e-02 4.12068181e-02
      -8.83891527e-03 5.00375777e-02 8.00898224e-02 1.14685586e-02
      -9.08323601e-02 1.64872836e-02 -6.85970811e-03 -3.14883962e-02
      -3.24676670e-02 -1.81251541e-02 1.87138631e-03 2.02130172e-02
      -5.79027273e-02 -1.89359474e-04 5.73020801e-02 -6.95072999e-03
      -6.75676316e-02 -3.14670091e-04 -1.18054785e-02 4.03550547e-03
      4.50379923e-02 7.89001286e-02 -5.57142906e-02 -3.08800954e-02
      2.89744399e-02 -1.17837712e-02 1.95555598e-03 1.96700729e-03
      3.96347642e-02 7.36198127e-02 3.35013331e-03 -5.90749569e-02
      2.22936776e-02 7.29298815e-02 -4.17078696e-02 8.70545134e-02
      -6.99464530e-02 1.55308833e-02 1.56897698e-02 -2.89324857e-02
      3.90848927e-02 4.03730422e-02 -4.40795254e-03 -4.43646163e-02
      -3.29064615e-02 -8.57533216e-02 1.38444789e-02 -6.20960211e-03
      6.47981688e-02 5.80264889e-02 6.76258728e-02 -2.40377821e-02
      -5.32342028e-03 -6.63401112e-02 -3.95070612e-02 1.75241586e-02
      1.34695144e-02 2.74528675e-02 1.39450189e-02 1.95738692e-02
      3.77964377e-02 -3.07216998e-02 -7.66013702e-03 -2.95931380e-02
      3.13975699e-02 -4.23443131e-02 3.62227745e-02 -1.36063667e-02
      1.04350030e-01 3.30814049e-02 2.33527012e-02 -5.97856008e-02
      -8.38267580e-02 -6.10071756e-02 2.31278613e-02 7.96397030e-02
      7.96229541e-02 -3.94149087e-02 -9.82986763e-02 -8.51633493e-03
      -2.92324480e-02 -6.11546589e-03 -4.58053425e-02 5.69739044e-02
      1.48571625e-01 1.36001587e-01 -1.16349630e-01 -9.85708311e-02
      -1.35995122e-02 8.59322324e-02 -4.30426840e-03 -2.71985885e-02
      -4.69011255e-02 -8.33551120e-03 7.69834295e-02 1.89092867e-02
      -7.94810951e-02 1.59821603e-02 3.06233224e-02 5.73965209e-03
      -5.34110367e-02 -1.44982405e-04 1.14246570e-01 1.19629368e-01
      -8.22949484e-02 -8.79147947e-02 -1.22107556e-02 1.02921180e-01
      -3.64215899e-04 -9.43415705e-03 8.33156891e-03 -6.93036383e-03
      4.16718647e-02 -1.42512441e-01 -6.55456930e-02 1.95908658e-02
      9.41999331e-02 5.80208115e-02 7.15052560e-02 8.89494494e-02
      8.81313309e-02 -9.26111301e-04 -7.49864206e-02 -2.84877568e-02
      8.45584795e-02 4.55264449e-02 8.58438946e-03 -9.42134783e-02
      -8.72134939e-02 -5.46951452e-03 9.15941596e-02 -2.77074948e-02
      -7.80169517e-02 -5.17633781e-02 9.34952646e-02 4.27694172e-02
      -6.33817166e-02 -5.07628508e-02 4.68344195e-03 1.67891812e-02
      1.60115007e-02 3.02183330e-02 2.30507962e-02 8.55502114e-02
      1.05363488e-01 1.05116367e-01 1.52228251e-01 1.42277405e-01
      -2.38221493e-02 -7.94176906e-02 2.89571341e-02 8.14393386e-02
      8.63434523e-02 8.37738439e-03 -1.71700101e-02 6.33422052e-03
      -4.26867865e-02 -6.39638007e-02 -1.41523048e-01 -4.76309620e-02
      -1.23630809e-02 3.94992493e-02 7.81245381e-02 3.40657718e-02
      3.79962586e-02 2.81652883e-02 2.30105929e-02 -2.98813898e-02
      7.09261894e-02 8.39886516e-02 7.97548741e-02 -8.59381258e-03
      -3.03531904e-02 -6.62832037e-02 -6.84886649e-02 -8.15580413e-03
      -9.73147154e-02 -4.83892150e-02 -4.75116540e-03 3.60302925e-02
      2.62660510e-03 -1.47376927e-02 -4.30357307e-02 2.72418093e-02
      7.69489706e-02 -1.03821367e-01 2.27014888e-02 -2.45334227e-02
      -3.02426843e-03 -2.39408109e-02 9.34944488e-03 2.70632841e-02
      6.85945824e-02 -5.24401739e-02 3.21611483e-03 6.36597574e-02
      1.10596959e-02 1.28105702e-02 2.40206737e-02 -1.95286870e-02
      -5.80951497e-02 1.14214048e-02 6.03837781e-02 -6.84856549e-02
      -1.30266724e-02 -2.72471029e-02 2.16916557e-02 7.55235106e-02
      5.35136908e-02 1.34332525e-02 7.66671076e-02 -5.77761121e-02
      -6.20597079e-02 -3.38596143e-02 -1.14870789e-02 7.47813135e-02
      -2.85880193e-02 5.26033854e-03 3.66946310e-02 8.91871750e-02
      -8.18303898e-02 4.26114462e-02 6.10428080e-02 -1.17288658e-03
      9.16957017e-03 -2.21185517e-02 6.93563186e-03 2.86199283e-02
      4.15595435e-02 -2.86703687e-02 1.76721427e-03 -1.22877015e-02
      -5.91095239e-02 1.46682607e-03 5.36731668e-02 4.49432433e-02
      2.00168807e-02 -4.84852679e-03 5.60282730e-02 3.59366015e-02
      1.65029988e-02 -5.90610411e-03 7.73398504e-02 2.37991363e-02
      7.52984220e-03 2.31575780e-02 3.36371968e-03 -8.74199271e-02
      1.05810873e-02 3.65569852e-02 8.78680404e-03 2.43137702e-02
      -2.64379084e-02 -3.11761238e-02 7.03074038e-02 6.31532595e-02
      -5.84425181e-02 -6.34459257e-02 4.35041124e-03 -2.10716967e-02
      -2.57188454e-02 -3.78274382e-03 1.78519487e-02 6.40054643e-02
      6.06352724e-02 2.32769852e-03 -1.00489035e-01 4.43186574e-02
      -3.76120731e-02 9.89209767e-03 1.52211981e-02 5.47725111e-02
      3.48116793e-02 5.16487062e-02 -8.69714767e-02 -2.68289261e-02
      -1.42807793e-02 2.53276899e-03 -3.00548156e-03 2.40729302e-02
      7.73743466e-02 4.20156531e-02 9.77729633e-02 3.91086414e-02
      -8.37677717e-02 -1.29612060e-02 -4.00173329e-02 -2.51877727e-03
      -4.15883958e-02 2.03680079e-02 2.92506628e-02 3.78352031e-02
      -2.07607485e-02 -8.57421830e-02 1.47522222e-02 -5.71037307e-02
      -2.35265885e-02 -3.61420633e-03 5.34449033e-02 1.72032919e-02
      -3.79813351e-02 -4.36382070e-02 -1.07446807e-02 3.53215225e-02
      1.76678859e-02 -1.49183609e-02 1.21321063e-02 4.71214503e-02
      6.95300847e-02 2.89691370e-02 2.20407080e-02 -7.93752074e-02
      4.56244405e-03 -4.04037386e-02 6.07490167e-03 7.72317499e-02
      8.65857825e-02 5.04115112e-02 -7.02794120e-02 -6.38802536e-03
      -3.35301682e-02 7.87038282e-02 2.37787198e-02 5.37894778e-02
      1.47962943e-02 -1.11177424e-03 1.62995644e-02 -3.81422751e-02
      2.50532795e-02 2.34076139e-02 -1.67222111e-03 4.12837267e-02
      1.89357512e-02 3.00931698e-03 -6.48050457e-02 -5.90318479e-02
      5.15262000e-02 4.67536561e-02 -1.30568221e-02 -5.36184981e-02
      2.18403805e-02 6.17574118e-02 2.86281444e-02 3.08661722e-02
      -2.07067169e-02 -1.43549535e-02 5.75662926e-02 8.49961787e-02
      5.35130687e-02 6.31034076e-02 3.41060646e-02 2.53930278e-02
      1.15686487e-02 -9.16317627e-02 5.55454418e-02 7.32841641e-02
      5.70481308e-02 2.12240871e-02 2.12165080e-02 3.78462076e-02
      1.79453474e-02 -1.35211751e-01 -1.51344851e-01 -3.19381468e-02
      4.96385582e-02 6.41769450e-03 3.22990236e-03 -5.31324092e-03
      5.72284870e-02 7.57795870e-02 -4.69475463e-02 -9.31539983e-02
      5.87283727e-03 -8.08721781e-03 6.35053441e-02 6.61352053e-02
      3.86800282e-02 1.05905145e-01 2.91543547e-02 -3.76477055e-02
      -8.16897303e-02 -4.86325398e-02 3.76207717e-02 5.82151674e-02
      3.98241654e-02 3.60581316e-02 3.73230800e-02 1.58259317e-01
      7.85238221e-02 2.43025180e-02 1.32002691e-02 2.82801245e-03
      6.62722215e-02 1.28793389e-01 1.17049120e-01 1.49503306e-01
      1.01571023e-01 4.17895243e-02 1.09466841e-03 -2.63027903e-02
      -3.64407077e-02 5.85329644e-02 1.14959739e-01 7.28417337e-02
      6.79526702e-02 2.68355273e-02 -4.59976979e-02 -6.69377148e-02
      -1.40397191e-01 -6.26634285e-02 1.16573060e-02 -1.41567504e-02
      -1.25602083e-02 2.73049679e-02 2.31463805e-01 1.03816181e-01
      7.26966932e-02 1.86662711e-02 -3.22283469e-02 -2.83421520e-02
      1.09449200e-01 8.94453898e-02 1.52155593e-01 9.67277959e-02
      -2.70707980e-02 1.56076169e-02 -4.76507731e-02 -5.99175766e-02
      -1.64573956e-02 3.87303680e-02 4.27879058e-02 8.12523440e-02
      4.31035310e-02 -2.80459840e-02 2.51433486e-03 2.24530157e-02
      1.05872825e-02 -3.28750126e-02 -1.26077561e-02 -2.22552512e-02
      6.62925616e-02 2.78761778e-02 2.24072207e-02 1.45580973e-02
      9.38534290e-02 -1.41270936e-01 -1.13894232e-01 -6.78362474e-02
      -2.77853180e-02 5.95233291e-02 8.65708739e-02 -3.57016958e-02
      1.22061195e-02 5.94874509e-02 1.71532389e-02 5.45949750e-02
      4.69132662e-02 7.87095074e-03 1.13014542e-01 6.30189478e-02
      -2.90226261e-03 3.07852756e-02 9.28063840e-02 -1.07320786e-01
      -7.34410882e-02 3.24294204e-03 2.47597676e-02 8.10071230e-02
      3.60269845e-02 4.25889082e-02 1.45948417e-02 -1.26363290e-02
      2.39800420e-02 -4.44630114e-03 -1.21133300e-02 -4.18188386e-02
      3.91114652e-02 1.91989038e-02 1.71834370e-03 2.75379326e-02
      -1.09905889e-02 -4.23450880e-02 2.74374634e-02 6.30218238e-02
      1.46846334e-02 1.41294580e-02 4.25311252e-02 2.15390157e-02
      3.56433801e-02 9.23501607e-03 -5.44717312e-02 -7.95089975e-02
      -2.58772820e-02 -2.55132373e-02 3.30788195e-02 1.65075436e-02
      1.20277153e-02 3.84080447e-02 -5.41128702e-02 -6.11735806e-02
      1.31974490e-02 -2.25802474e-02 -2.89942361e-02 1.46334460e-02
      1.66649965e-03 8.23227130e-03 -3.61812562e-02 6.58888835e-03
      -7.72882327e-02 -1.65409630e-03 -1.49490051e-02 6.75934507e-03
      7.68459262e-03 1.97235290e-02 3.04019284e-02 8.49031098e-03
      3.33434716e-02 4.72409576e-02 -5.53463027e-02 -1.54054565e-02
      -6.32918626e-02 -2.70269532e-02 -2.55220812e-02 -2.32973229e-03
      3.18866270e-03 2.80438997e-02 -6.67848364e-02 7.14610964e-02
      4.83479025e-03 -1.36254085e-02 -1.23432381e-02 8.06669646e-04
      3.15471515e-02 6.91747293e-02 1.19182561e-02 5.89404814e-02
      1.89534947e-03 4.78888378e-02 -3.98801155e-02 -4.07359973e-02
      3.51581164e-02 4.27320190e-02 4.51121144e-02 1.96048990e-03
      -9.40485578e-03 -7.34710321e-02 -1.99519731e-02 -5.79787530e-02
      1.08796649e-03 6.89691305e-02 7.43421540e-02 2.43221670e-02
      2.15589185e-03 3.83198634e-02 1.46187898e-02 2.33815126e-02
      -9.43085004e-04 2.22792868e-02 8.80973600e-03 3.50939482e-02
      4.57685776e-02 -2.27356236e-02 -1.23021388e-02 -1.52468225e-02
      4.04050723e-02 -1.42477257e-02 -5.27828792e-03 -3.91828408e-03
      8.68107900e-02 3.86906452e-02 3.06141451e-02 2.20985506e-02
      3.50057557e-02 5.76812215e-02 4.23660465e-02 -2.61369534e-03
      1.81050692e-02 4.36617695e-02 -4.81097139e-02 -2.11108960e-02
      5.49464263e-02 1.20227993e-01 2.10608244e-02 4.39134687e-02
      1.47859836e-02 -4.48525660e-02 2.68414710e-02 -6.11303672e-02
      -6.48540482e-02 -2.98290737e-02 2.19728071e-02 -1.08352974e-02
      8.04101583e-03 3.89638618e-02 -2.94628832e-02 1.20078228e-01
      1.59479241e-04 7.04496875e-02 4.21104729e-02 1.00690402e-01
      4.69656251e-02 5.81501350e-02 -4.98079434e-02 -4.30922434e-02
      9.85068604e-02 -3.15145440e-02 1.17303235e-02 1.60106085e-02
      1.04188077e-01 3.59134413e-02 4.23020311e-02 -2.94143371e-02
      1.76101197e-02 3.68241891e-02 -4.53574322e-02 -7.37436265e-02
      2.22455934e-02 1.25928605e-02 2.62450278e-02 5.94950803e-02
      7.50849620e-02 1.57275349e-01 4.35369350e-02 -1.11152977e-02
      5.86886564e-03 -3.11792530e-02 5.83142787e-02 5.31798005e-02
      8.01744014e-02 1.24630079e-01 2.29196344e-03 8.72536078e-02
      6.67033270e-02 -3.36471200e-02 -3.47411595e-02 7.21471310e-02
      7.61524029e-03 5.25073446e-02 3.85418795e-02 1.25852630e-01
      2.01779441e-03 1.31233204e-02 -2.90998984e-02 -7.08173141e-02
      -3.84093411e-02 -1.02759108e-01 8.16853158e-03 8.83960500e-02
      2.20808968e-01 5.87823689e-02 9.34584513e-02 5.49448701e-03
      -7.60253072e-02 -3.95334773e-02 2.79396791e-02 9.02395546e-02
      1.69210285e-01 1.69298828e-01 4.81957868e-02 5.53319603e-02
      3.02572977e-02 -1.23845421e-01 -1.32857576e-01 2.10279170e-02
      3.26606780e-02 1.28867090e-01 1.56722084e-01 -1.89989675e-02
      2.24315207e-02 -4.97153066e-02 -1.02658749e-01 -8.16730261e-02
      -7.59920059e-03 7.10994750e-02 1.88912049e-01 1.31402940e-01
      1.03936270e-02 -6.40990585e-02 -3.11431233e-02 -1.29536539e-01
      -1.49527460e-01 -9.48331971e-03 4.51448224e-02 1.05862118e-01
      9.17687863e-02 3.23696844e-02 8.15211907e-02 3.21675502e-02
      -2.66366675e-02 2.22124830e-02 3.59357297e-02 4.53851139e-03
      6.56682402e-02 5.33203371e-02 1.25131526e-04 5.04970625e-02
      1.81946289e-02 -1.16295598e-01 -1.88891999e-02 2.05583684e-03
      1.90045815e-02 5.48428223e-02 7.93144405e-02 3.94370127e-03
      4.84210998e-03 -1.04791597e-02 -3.77524346e-02 -2.54789274e-02
      2.21434329e-02 2.37492211e-02 4.45097722e-02 1.69861484e-02
      -3.58133018e-02 5.20533696e-03 -7.74126872e-02 -1.38211608e-01
      -1.67542472e-02 -3.41974013e-02 -2.78629456e-02 2.22284812e-02
      4.14522849e-02 1.64461124e-03 3.46513428e-02 -1.38585977e-02
      -4.24404815e-02 -2.44840477e-02 -6.75559789e-03 1.41019449e-02
      4.57546152e-02 2.72481050e-02 1.25613576e-02 2.76088826e-02
      -3.11227571e-02 -2.68723965e-02 1.08713098e-02 -5.49022527e-03
      -9.83741879e-03 1.73344761e-02 1.07370280e-02 -2.07495913e-02
      1.70270428e-02 -6.93417862e-02 4.18868326e-02 -3.50959077e-02
      -2.31651384e-02 -6.86362479e-03 3.60449627e-02 1.50158524e-03
      1.28273491e-03 -5.60362078e-03 -2.30431892e-02 -3.14430408e-02
      9.20075644e-03 -1.19837411e-02 -2.18606927e-02 -5.59514947e-03
      -2.64460258e-02 5.31627273e-04 5.20736389e-02 9.55828875e-02
      -5.03404699e-02 7.31431767e-02 -6.93824608e-04 -2.16965545e-02
      -1.72535218e-02 -8.88601691e-03 1.48154125e-02 4.75316085e-02
      4.19995561e-02 -4.28659841e-03 1.11858897e-01 -9.32082720e-03
      -1.59090348e-02 -2.49155238e-02 -9.10655335e-02 -4.92526926e-02
      -2.55174730e-02 3.63127142e-02 -1.08725522e-02 7.08409175e-02
      -3.46381962e-02 -5.61435558e-02 -7.06842467e-02 -1.40090555e-01
      -8.39749798e-02 -6.60588667e-02 -2.79675089e-02 1.61300614e-01
      1.85110360e-01 -1.43983718e-02 -8.20315331e-02 -1.20331220e-01
      3.65188508e-03 2.01364998e-02 2.75741778e-02 -3.91682982e-02
      -1.10357758e-02 3.43413539e-02 4.38780989e-03 1.71428435e-02
      -1.98405981e-03 -1.33939814e-02 9.26544666e-02 7.60410503e-02
      7.43618160e-02 1.14123844e-01 9.27646607e-02 8.14963058e-02
      4.96493466e-02 -8.29379354e-03 -1.01237185e-01 -2.92100422e-02
      8.93188058e-04 -5.35466485e-02 7.71418959e-02 7.96306431e-02
      -8.77258927e-02 -6.92633241e-02 -9.97984856e-02 -6.78031147e-02
      6.11567385e-02 5.21554053e-02 7.03790933e-02 5.38530014e-02
      8.55346695e-02 -2.85392087e-02 8.77928827e-03 -9.12139118e-02
      -5.29360734e-02 9.82994661e-02 -1.81693509e-02 7.42528215e-02
      5.91144972e-02 3.32322046e-02 6.06055632e-02 7.27311661e-03
      -6.83594644e-02 -1.12019386e-02 6.45155534e-02 -8.94712005e-03
      3.80852222e-02 2.81562619e-02 7.51877874e-02 8.92700162e-03
      -1.44418711e-02 -6.60608187e-02 -1.89945716e-02 5.93735017e-02
      -3.49967591e-02 4.68645953e-02 5.31803183e-02 3.55845019e-02
      -2.23004725e-02 -6.54435307e-02 -1.37259796e-01 -2.42697150e-02
      -1.25143500e-02 -1.24726212e-02 5.55476211e-02 3.16032767e-02
      1.81976166e-02 2.61966251e-02 -5.58021031e-02 -8.33070055e-02
      1.15838423e-02 6.16488121e-02 5.35952635e-02 2.73383576e-02
      -4.80922274e-02 5.39584979e-02 -5.30512817e-03 1.34507641e-02
      -2.13346649e-02 7.01595545e-02 2.56959014e-02 8.58957600e-03
      -7.33958185e-03 -8.36948901e-02 -4.30107228e-02 -5.33982068e-02
      -1.84531044e-02 6.86758682e-02 4.49134372e-02 -4.96757217e-02
      -4.20646966e-02 -1.38278063e-02 -3.20732705e-02 7.90346693e-03
      3.49768624e-02 9.84366983e-03 3.28096561e-02 1.11322112e-01
      -1.08307768e-02 -6.42990395e-02 -4.50943783e-02 -8.57333466e-02
      1.10137826e-02 -4.68959622e-02 -4.06888723e-02 8.21106359e-02
      4.24851812e-02 6.21770159e-04 2.54346902e-04 5.73625788e-03
      -6.86076060e-02 -9.57549736e-02 -4.20420915e-02 -4.06204760e-02
      6.96090758e-02 2.10947432e-02 6.51288917e-03 -9.52278152e-02
      -8.81350134e-03 2.75847651e-02 -9.97984484e-02 -1.30122770e-02
      -1.42411357e-02 4.80837673e-02 1.07743077e-01 4.38639000e-02
      -5.77050308e-03 -5.54843321e-02 -3.85724716e-02 2.91402843e-02
      -3.77242155e-02 -4.88258377e-02 9.26368758e-02 8.17596316e-02
      1.79414973e-02 -3.15090083e-02 -4.16726321e-02 5.66134900e-02
      -1.48441186e-02 -3.45594138e-02 7.03643542e-03 1.09835766e-01
      5.86989634e-02 1.48363563e-03 -5.46164103e-02 -2.06474569e-02
      5.91523163e-02 1.36777421e-03 5.23438565e-02 6.06802143e-02
      7.74060413e-02 -9.83718596e-03 -6.52871951e-02 -1.20148007e-02
      -4.14865650e-02 -1.32201225e-01 1.09464535e-02 2.05691196e-02
      7.85814656e-04 1.91086605e-02 6.45986721e-02 1.88082103e-02
      -1.37979835e-02 -1.19802952e-02 1.85498539e-02 -4.41045277e-02
      1.91228949e-02 9.81849954e-02 1.14580087e-01 4.00026562e-03
      -3.70907970e-02 -6.57875463e-03 -7.16618437e-04 -1.04700960e-01
      2.17519308e-04 -1.48031523e-03 -1.42703177e-02 7.39396503e-03
      -4.32430860e-03 -4.20943052e-02 1.58521623e-04 1.02580609e-02
      1.00362979e-01 -6.31697709e-03 2.13666894e-02 6.11286052e-03
      8.21082201e-03 -4.95301734e-04 -2.35616956e-02 -2.17578770e-03
      1.45186698e-02 -7.72445172e-04 -5.04843146e-03 -3.78971174e-02
      -2.50830892e-02 -6.27186429e-03 3.14242835e-03 -5.04547805e-02
      2.08553616e-02 4.07464467e-02 -5.68326563e-02 2.59974711e-02
      1.44414352e-02 -2.57943831e-02 -2.85342913e-02 -2.69251242e-02
      -3.56959887e-02 6.16324786e-03 2.28304118e-02 1.39296940e-02
      -1.80909634e-02 -4.27129120e-02 -1.87454335e-02 -3.19145732e-02
      -3.97116132e-02 -3.33049409e-02 -1.96246020e-02 4.41749282e-02
      1.11412499e-02 8.10300261e-02 9.95141547e-03 -3.65539603e-02
      -3.74046676e-02 -2.39601880e-02 1.29856560e-02 -2.33838195e-03
      7.61661120e-03 1.19522400e-01 1.79685622e-01 4.25158069e-02
      -8.73533357e-03 -4.04723994e-02 -2.28553098e-02 6.00259006e-03
      -1.65155474e-02 -1.21630672e-02 -3.96799855e-02 -4.06476582e-04
      -3.37202512e-02 -6.40421882e-02 5.14820404e-03 -4.10415307e-02
      4.71333452e-02 6.28547445e-02 1.73221491e-02 6.97127432e-02
      4.42876574e-03 1.97582748e-02 -1.21824415e-02 1.26106758e-02
      -4.81008664e-02 1.84038524e-02 5.14040478e-02 -4.95836660e-02
      6.58379421e-02 9.99813229e-02 -2.22741310e-02 -1.56161468e-02
      -4.71480377e-02 -3.55886891e-02 1.92073863e-02 5.31083234e-02
      8.18752572e-02 1.27288416e-01 1.13346308e-01 -9.17864498e-03
      2.58921608e-02 -5.29541560e-02 -8.27554539e-02 5.87175135e-03
      5.30428439e-02 -4.26003486e-02 -2.86158249e-02 -5.60563570e-03
      1.08816475e-02 -1.19608073e-02 -5.11810668e-02 -4.46142741e-02
      -2.64660157e-02 1.13219647e-02 8.62375349e-02 1.19414262e-01
      7.55786151e-02 2.62280889e-02 4.45765108e-02 -5.38634993e-02
      9.69023735e-04 -2.10570060e-02 -1.67286955e-02 4.21049353e-03
      9.37953815e-02 6.47177994e-02 -4.60623112e-03 -1.38209034e-02
      -7.27469251e-02 -2.97375880e-02 -4.83272113e-02 -4.99784527e-03
      2.92402990e-02 2.73126457e-02 5.97529486e-02 6.88362028e-03
      -1.73617620e-02 -3.12088691e-02 1.96028501e-02 -2.44094077e-02
      -1.55230826e-02 8.76387507e-02 1.10855624e-01 7.45583698e-02
      -3.55567150e-02 -5.35863591e-03 -3.66603844e-02 1.94898397e-02
      -4.48999554e-02 -5.08495122e-02 -1.71038751e-02 2.79505327e-02
      2.22671870e-02 -4.38386900e-03 -4.16392200e-02 8.25157017e-03
      5.75040607e-03 -9.94807780e-02 -3.00019048e-02 -2.49414388e-02
      -6.08130917e-02 -4.25259769e-03 -1.41005181e-02 5.19081717e-03
      6.35021776e-02 1.41082942e-01 -3.05534061e-02 -4.04304862e-02
      -1.51908979e-01 -7.18684196e-02 -2.18575876e-02 -5.42956926e-02
      -1.16222352e-03 1.29104555e-01 6.68515339e-02 -2.65873894e-02
      -4.48004492e-02 -5.59558719e-02 -5.29712141e-02 4.43563052e-03
      -4.47381847e-02 7.10267667e-03 9.92328599e-02 1.63482442e-01
      1.32229459e-02 -8.14635754e-02 -1.34467676e-01 -5.96101396e-02
      1.08402763e-02 -5.95818013e-02 8.04497078e-02 1.68171078e-01
      1.49205983e-01 5.31163812e-02 1.00457557e-02 -1.85221270e-01
      -5.07832952e-02 9.42546409e-03 -5.99522255e-02 2.38112379e-02
      1.17470428e-01 6.38376474e-02 -1.45172877e-02 -6.48744330e-02
      -1.19085968e-01 6.07409924e-02 -3.39276232e-02 -6.27773553e-02
      1.53879849e-02 6.33718893e-02 1.36935800e-01 -1.30478032e-02
      -3.42266029e-03 -1.53215989e-01 -6.01813989e-03 2.40479670e-02
      -6.26549050e-02 7.45291859e-02 1.50719106e-01 7.79201165e-02
      1.03947530e-02 5.97894285e-03 -5.48416227e-02 7.87014514e-02
      2.41388101e-02 -1.07531585e-01 -3.92611772e-02 5.62423989e-02
      4.66946326e-02 2.62285657e-02 -1.53496377e-02 1.08737533e-03
      3.51843685e-02 4.17604065e-03 -3.10992822e-03 5.88601865e-02
      5.07826731e-02 1.53612616e-02 3.90211828e-02 -2.87471153e-02
      -5.81280366e-02 -1.28809497e-01 -4.98305149e-02 -6.11488707e-02
      -9.31379478e-03 -3.22969556e-02 8.70366395e-02 3.41416746e-02
      1.86326366e-03 8.09867382e-02 7.85686299e-02 -1.53835937e-02
      -6.51127324e-02 -1.47093665e-02 1.90672539e-02 7.33099803e-02
      6.75778612e-02 1.79570261e-02 -7.29459804e-03 -6.59841672e-02
      -9.12435576e-02 -5.50844520e-02 -1.45639647e-02 1.18518490e-02
      3.72536387e-03 1.21036898e-02 4.19305712e-02 9.60294902e-03
      -1.24431610e-01 2.16319971e-02 -4.91518388e-03 -1.09244501e-02
      -4.01056223e-02 -3.55505198e-02 -4.05171327e-02 1.68960518e-03
      1.69486529e-03 -3.68022695e-02 -7.33045721e-03 -2.25195428e-03
      -1.20228929e-02 -6.31403774e-02 3.48684341e-02 2.54616570e-02
      7.48827979e-02 3.78157571e-02 1.20352976e-01 -8.32920335e-03
      2.59693246e-02 3.12914625e-02 4.20314707e-02 -1.66695546e-02
      -5.69871962e-02 -5.52705675e-02 3.11021674e-02 1.58263166e-02
      1.16935819e-02 1.08095510e-02 2.65944190e-03 1.17420452e-02
      3.44254375e-02 4.47474308e-02 -5.53289894e-03 -2.11208332e-02
      -3.34518738e-02 -8.34309589e-03 -2.59668529e-02 -1.47541054e-02
      3.00062262e-02 3.52719724e-02 4.75828163e-02 2.32289229e-02
      -1.81955309e-03 1.23626096e-02 -5.14289476e-02 2.91710533e-02
      -2.29474492e-02 1.52938841e-02 -1.14483600e-02 1.42848548e-02
      2.32632700e-02 4.91457395e-02 -3.51654291e-02 2.34582033e-02
      -4.07580612e-03 2.18938030e-02 -1.09904436e-02 6.04858529e-03
      2.59709228e-02 1.24352677e-02 5.91367818e-02 1.84805654e-02
      -1.43397758e-02 -1.27687845e-02 -2.34248838e-03 -1.57386027e-02
      -1.71758924e-02 2.69855000e-02 -1.31737497e-02 -4.10706317e-03
      -3.05819102e-02 -6.53246641e-02 2.64584925e-02 9.46077704e-03
      -1.87223330e-02 1.83705669e-02 3.18724141e-02 4.05852944e-02
      1.10873088e-01 1.25088945e-01 4.58909804e-03 1.10630859e-02
      2.05336269e-02 -2.87923291e-02 -6.24719970e-02 3.24551836e-02
      2.90535577e-02 4.53323759e-02 -2.01418456e-02 -5.44610843e-02
      -6.41442314e-02 -4.99779284e-02 -8.20960999e-02 -2.62221806e-02
      2.60455199e-02 2.49166209e-02 1.14604391e-01 1.15836181e-01
      9.36434492e-02 -6.34794310e-02 -2.90778317e-02 -7.58207589e-02
      8.11306760e-02 6.90224906e-03 -2.47111507e-02 6.12014979e-02
      1.48146868e-01 -1.29326591e-02 -6.28185198e-02 -6.26959950e-02
      2.17913035e-02 8.58533829e-02 -3.26322876e-02 -6.52591661e-02
      4.97588627e-02 7.47405589e-02 -1.98692679e-02 -1.64925829e-02
      -7.08002895e-02 4.51293923e-02 -6.90661445e-02 -1.34248915e-03
      -2.49874312e-03 7.45082572e-02 1.40896425e-01 5.19663468e-02
      -9.01919976e-02 -1.36282161e-01 -1.17835358e-01 -4.50080894e-02
      -2.18676161e-02 -4.63472418e-02 6.52552247e-02 1.02196753e-01
      -5.74329076e-03 -4.91924444e-03 -7.22099245e-02 -5.80163486e-02
      1.30722731e-01 3.04794852e-02 -6.08181469e-02 -2.14517880e-02
      2.74984874e-02 4.16342989e-02 3.34743457e-03 2.82724039e-03
      7.51786456e-02 1.14109568e-01 2.55955979e-02 -6.88452795e-02
      -1.13585345e-01 -3.27759124e-02 3.08662187e-02 -3.99689702e-03
      4.47830185e-02 8.33213106e-02 3.77779827e-02 8.40090439e-02
      -3.28139076e-03 4.20043953e-02 6.27478808e-02 -6.03648950e-04
      9.51163005e-03 1.58487912e-02 4.88647409e-02 2.21273433e-02
      -3.30455862e-02 -6.92726523e-02 -9.25407335e-02 -3.88122872e-02
      -1.00861548e-03 -2.64980141e-02 -8.50929227e-03 4.07152846e-02
      5.81467636e-02 -5.40289320e-02 1.28830317e-02 -7.67808333e-02
      3.75617482e-02 1.19276401e-02 -2.24167649e-02 3.05506922e-02
      6.11701384e-02 1.82844792e-02 -6.24829344e-02 -1.74379926e-02
      -7.78227765e-03 9.88987759e-02 4.08283807e-03 -9.11748111e-02
      -5.08786663e-02 -9.30970162e-03 2.47778688e-02 -5.47312163e-02
      -3.62339802e-02 -3.18630412e-02 6.87831789e-02 -1.88223664e-02
      -1.68859251e-02 -1.69976447e-02 1.78422891e-02 9.21820849e-03
      -5.92232160e-02 -2.04624212e-03 9.76424515e-02 8.77286121e-02
      6.12363825e-03 -3.69830616e-02 -2.57217772e-02 -8.47079828e-02
      1.46322148e-02 3.13628581e-03 -7.67157376e-02 8.76001343e-02
      1.21257201e-01 -6.80399016e-02 -6.62799627e-02 -3.69801670e-02
      -2.97964755e-02 -2.02860031e-02 3.05823833e-02 -1.63693856e-02
      2.41903476e-02 -1.94753241e-02 -1.13738455e-01 -3.24799381e-02
      -7.19143683e-03 -1.29494052e-02 -1.64829160e-03 -4.18562591e-02
      -9.28143039e-02 1.18294798e-01 1.28328398e-01 -2.93853208e-02
      -3.68938595e-02 -1.38979061e-02 -5.78028969e-02 -3.22451666e-02
      -6.68479055e-02 -7.18471557e-02 -1.50434552e-02 -7.71628413e-03
      -6.73851073e-02 1.44463619e-02 1.61980968e-02 -1.44855892e-02
      -4.38981578e-02 -4.34774123e-02 2.03596195e-03 4.36879732e-02
      3.07908189e-02 -2.15622913e-02 1.29474057e-02 1.09867975e-02
      2.10494660e-02 -3.43548357e-02 -7.40844980e-02 -5.62695414e-02
      2.74692625e-02 6.38418868e-02 2.80118883e-02 1.21744126e-02
      1.68444701e-02 8.84069782e-03 -5.71815334e-02 -1.02688491e-01
      -7.74535090e-02 1.47264749e-02 1.55063510e-01 -6.02172948e-02
      -5.90372924e-03 -5.34210075e-03 -9.83761129e-05 -3.95782068e-02
      -1.02952801e-01 -3.83844078e-02 1.58251151e-02 3.49569395e-02
      2.93279532e-02 1.40755437e-02 1.87829845e-02 -2.28079152e-03</_></support_vectors>
  <uncompressed_sv_total>139</uncompressed_sv_total>
  <uncompressed_support_vectors>
    <_>
      1.49186486e-02 3.14520113e-03 1.65480655e-02 3.35469581e-02
      4.72080529e-01 3.98692638e-02 1.31155970e-02 1.19752195e-02
      1.46323461e-02 5.97163662e-02 2.40548942e-02 5.15862890e-02
      4.65234369e-02 4.72080529e-01 2.97094043e-02 1.36287641e-02
      1.21511435e-02 5.56462891e-02 5.74183417e-03 1.94246415e-03
      2.53770663e-03 3.52960080e-02 4.72080529e-01 2.05677208e-02
      5.02548227e-03 4.48672101e-03 7.28743291e-03 2.04082057e-02
      5.49614020e-02 2.39449412e-01 1.51110128e-01 4.72080529e-01
      2.87411828e-02 6.64181635e-03 1.22882761e-02 1.92824341e-02
      6.78940117e-02 8.97563919e-02 1.82754233e-01 1.38218910e-01
      2.51145899e-01 1.18570052e-01 1.51753733e-02 7.86445383e-03
      7.69802108e-02 8.42122287e-02 1.67878568e-01 2.55067855e-01
      2.50008643e-01 2.55067855e-01 2.55067855e-01 9.52197686e-02
      1.32151693e-01 1.98868126e-01 2.55148951e-02 2.08318740e-01
      2.55067855e-01 1.54711425e-01 1.93532005e-01 8.34661052e-02
      2.07771026e-02 1.49330553e-02 1.80291776e-02 4.85794991e-02
      2.55067855e-01 2.55067855e-01 1.42537847e-01 2.48381034e-01
      1.97673932e-01 1.87805250e-01 1.25239372e-01 8.32402781e-02
      9.15999413e-02 1.02930285e-01 7.87760764e-02 1.01354629e-01
      1.36412650e-01 1.01892591e-01 1.92503199e-01 3.01223308e-01
      2.60538459e-01 8.27661529e-02 4.80768941e-02 1.48539543e-02
      3.23257223e-02 4.19632010e-02 5.46178110e-02 1.93894029e-01
      3.07185113e-01 2.71244735e-01 6.27781823e-02 9.69517753e-02
      9.90527347e-02 9.77183208e-02 1.21276900e-01 1.24338239e-01
      3.07185113e-01 3.07185113e-01 1.82726592e-01 4.01303656e-02
      1.68644786e-02 2.79630050e-02 3.45613286e-02 4.72581796e-02
      1.06469274e-01 3.07185113e-01 3.07185113e-01 1.57959610e-01
      1.29353225e-01 6.04915433e-02 3.02273221e-02 2.79640313e-02
      4.67559397e-02 6.60491884e-02 1.69804141e-01 2.87301064e-01
      2.87301064e-01 2.87301064e-01 7.57407919e-02 4.34528962e-02
      3.93876918e-02 5.60274236e-02 9.06743258e-02 2.87301064e-01
      2.87301064e-01 2.87301064e-01 3.92940305e-02 3.48903425e-02
      4.10746187e-02 3.50554399e-02 5.79294860e-02 1.04435116e-01
      2.87301064e-01 2.87301064e-01 2.02232271e-01 3.37411091e-02
      4.72027995e-02 5.28294332e-02 5.93888611e-02 7.91459903e-02
      1.03824757e-01 2.66655684e-01 2.87301064e-01 1.32567972e-01
      2.69242942e-01 3.46277021e-02 1.05654811e-02 2.00427566e-02
      4.48317081e-02 6.70001805e-02 2.79680520e-01 2.79680520e-01
      2.65394807e-01 1.02658615e-01 1.20725110e-02 3.69096012e-03
      3.60118621e-03 2.03888211e-02 3.28374095e-02 2.79680520e-01
      2.79680520e-01 2.79680520e-01 6.25498295e-02 4.69124168e-02
      4.20833267e-02 6.91737980e-02 1.19187213e-01 1.32805079e-01
      2.79680520e-01 2.79680520e-01 9.31249484e-02 1.18902914e-01
      6.74230680e-02 4.81463969e-02 4.66797315e-02 5.77097647e-02
      7.52604380e-02 2.79680520e-01 2.79680520e-01 2.10978568e-01
      6.39862791e-02 3.17018200e-03 1.34464155e-03 3.24305322e-04
      7.14329351e-03 1.66401304e-02 2.59661347e-01 2.99296826e-01
      2.99296826e-01 9.44690406e-02 0. 0. 4.16964001e-04 3.40213091e-03
      8.79545137e-03 1.42468378e-01 2.99296826e-01 2.99296826e-01
      1.14280343e-01 6.53271154e-02 2.72956546e-02 2.21470669e-02
      1.88346189e-02 3.59725840e-02 2.99296826e-01 2.99296826e-01
      2.93196857e-01 1.10638231e-01 4.46736030e-02 3.00421864e-02
      1.91975925e-02 2.54991185e-02 6.35627732e-02 2.29863524e-01
      2.99296826e-01 2.99296826e-01 2.45959740e-02 7.87234632e-04
      1.64387876e-03 2.00780015e-02 4.75023746e-01 6.54645860e-02
      2.36635581e-02 1.09590963e-01 9.18904319e-02 1.42173832e-02
      6.21816795e-03 9.52722598e-03 3.59854624e-02 4.75023746e-01
      9.57090855e-02 9.56809521e-03 3.10216434e-02 3.29680853e-02
      1.64972860e-02 6.33648271e-03 1.33941947e-02 8.28136969e-03
      4.75023746e-01 1.08649932e-01 4.58088741e-02 1.24624908e-01
      5.76079078e-02 8.01900495e-03 4.34770249e-03 1.05720405e-02
      9.51700378e-03 4.75023746e-01 1.33063987e-01 1.35929240e-02
      4.06158231e-02 1.69422273e-02 2.31853337e-03 3.21019301e-03
      6.87825959e-03 2.10407153e-02 4.44386303e-01 1.58391185e-02
      2.64865113e-03 2.03409279e-03 3.29528353e-03 6.79450668e-03
      3.46440896e-02 1.94182217e-01 1.58516809e-01 4.44386303e-01
      9.22037363e-02 5.63229620e-02 8.25134218e-02 1.43437320e-02
      1.06515887e-03 3.50471470e-03 1.03192711e-02 2.61953846e-02
      4.44386303e-01 2.77946200e-02 4.41081123e-03 2.39720498e-03
      1.45665114e-03 3.00582219e-03 1.65540595e-02 8.00053701e-02
      1.13118581e-01 4.44386303e-01 1.77347481e-01 1.31336346e-01
      2.26437390e-01 3.21878158e-02 4.33424115e-02 1.10483937e-01
      2.70376295e-01 1.77992389e-01 2.41337642e-01 1.02959588e-01
      1.00148335e-01 2.16019288e-01 5.56846075e-02 7.87373260e-02
      1.30491629e-01 2.20257252e-01 1.05393931e-01 6.11527674e-02
      4.51186560e-02 1.05468497e-01 1.61742151e-01 1.06511913e-01
      4.56926264e-02 3.29402089e-02 1.09818883e-01 1.37704253e-01
      2.70376295e-01 2.19423309e-01 2.70376295e-01 2.70376295e-01
      1.69756129e-01 1.24673724e-01 9.56812799e-02 9.53517407e-02
      1.11930311e-01 1.42918870e-01 1.27595648e-01 2.29857549e-01
      2.70376295e-01 2.70376295e-01 6.65244088e-02 5.74181788e-02
      7.42762461e-02 8.60677585e-02 5.01014180e-02 6.75318986e-02
      3.15418571e-01 3.15418571e-01 1.27462476e-01 6.08456619e-02
      1.83419753e-02 4.04481217e-02 3.84934992e-02 3.58657353e-02
      1.49410740e-01 3.15418571e-01 3.15418571e-01 1.66274592e-01
      1.75986812e-01 1.26001358e-01 7.44926631e-02 5.64402118e-02
      7.07931668e-02 7.49315843e-02 1.27996057e-01 1.60515606e-01
      2.05792621e-01 1.98050797e-01 8.01609159e-02 6.39163777e-02
      4.26880382e-02 7.70281926e-02 1.66774631e-01 2.96027213e-01
      3.15418571e-01 2.70890832e-01 4.18588147e-02 1.85842514e-02
      2.25987416e-02 1.50416233e-02 2.20832061e-02 1.39794871e-01
      2.69223422e-01 2.69223422e-01 1.71567291e-01 2.95623560e-02
      2.56057270e-02 2.23493911e-02 3.53521779e-02 4.43404838e-02
      1.19868986e-01 2.69223422e-01 2.69223422e-01 9.10073966e-02
      9.87287611e-02 4.43135686e-02 7.93656260e-02 6.36906177e-02
      1.22870103e-01 2.60099858e-01 2.69223422e-01 2.69223422e-01
      2.49015763e-01 5.34737781e-02 3.16232070e-02 8.01971853e-02
      1.49934769e-01 2.28970319e-01 2.69223422e-01 2.69223422e-01
      2.69223422e-01 1.12957500e-01 8.95762965e-02 6.72028437e-02
      6.15665950e-02 9.97946411e-02 1.58980727e-01 1.86299607e-01
      2.36120328e-01 2.04471365e-01 1.18465364e-01 2.13350564e-01
      1.26079544e-01 8.60882774e-02 7.02830255e-02 9.76184234e-02
      1.27390653e-01 2.36120328e-01 2.36120328e-01 2.36120328e-01
      1.38668656e-01 9.43571702e-02 8.25727135e-02 2.36120328e-01
      2.36120328e-01 2.36120328e-01 2.36120328e-01 1.58840194e-01
      1.01919927e-01 1.76398531e-01 9.94633958e-02 5.10765016e-02
      9.24159437e-02 1.55209392e-01 2.21542209e-01 1.85629994e-01
      1.87873498e-01 2.10539445e-01 2.31419668e-01 1.67728379e-01
      6.95631504e-02 5.92193305e-02 6.81799874e-02 7.89064988e-02
      2.48086169e-01 2.48086169e-01 2.48086169e-01 2.34166130e-01
      1.29945397e-01 1.35694265e-01 6.97142556e-02 1.15999095e-01
      1.48631781e-01 1.33673891e-01 1.93074495e-01 2.48086169e-01
      1.11081176e-01 9.00755301e-02 6.20589107e-02 1.21067815e-01
      2.20488861e-01 2.48086169e-01 2.29269847e-01 1.63955405e-01
      1.33978397e-01 1.44234315e-01 9.28182453e-02 1.47126272e-01
      1.31473318e-01 2.48086169e-01 2.48086169e-01 1.31808832e-01
      5.03209680e-02 8.28830078e-02 2.85235252e-02 1.69456434e-02
      3.16881239e-02 1.45518873e-02 4.83526796e-01 1.07630573e-01
      2.01065149e-02 3.47490273e-02 3.23848538e-02 9.43396427e-03
      7.57238409e-03 1.03821196e-02 9.17612761e-03 4.83526796e-01
      1.12088308e-01 8.12077895e-03 1.19929081e-02 8.17382708e-03
      2.07647327e-02 1.47099411e-02 2.16059368e-02 2.06170399e-02
      4.83526796e-01 1.42237142e-01 1.83449220e-02 4.62699309e-03
      1.09882038e-02 7.68779078e-03 7.44011998e-03 8.37578531e-03
      1.93257481e-02 4.83526796e-01 8.58016536e-02 6.23936485e-03
      1.21319492e-03 5.26454300e-03 2.66202469e-03 1.58834811e-02
      1.63628478e-02 2.62598768e-02 4.27356482e-01 6.10091463e-02
      3.95744527e-03 1.10194960e-03 2.34793127e-03 4.63624438e-03
      4.46253791e-02 8.31571147e-02 9.50357243e-02 4.27356482e-01
      2.58507013e-01 9.53818560e-02 8.08361471e-02 2.01579090e-02
      1.21807829e-02 2.78553385e-02 2.62814909e-02 4.26529348e-02
      4.27356482e-01 9.29520056e-02 1.21592982e-02 4.18382086e-04
      5.06497175e-03 2.50490643e-02 7.16551021e-02 1.09485269e-01
      1.92580983e-01 4.27356482e-01 2.92546600e-01 8.02770332e-02
      3.40711582e-03 1.69530381e-02 6.36442564e-03 1.64558534e-02
      6.25896156e-02 1.34484515e-01 3.04020435e-01 3.00426543e-01
      1.75736859e-01 2.34926552e-01 5.42224683e-02 3.87554504e-02
      4.66988012e-02 5.60273454e-02 1.61410406e-01 3.04020435e-01
      2.12834194e-01 1.63898304e-01 2.04067484e-01 9.40083265e-02
      6.06675306e-03 2.06169374e-02 5.29861301e-02 2.21991554e-01
      3.04020435e-01 3.04020435e-01 8.34301412e-02 7.51793617e-03
